1772 200
, 0.27635455 -0.1338842 -0.095251694 -0.03093146 -0.31543943 -0.008852186 -0.49762225 0.32753795 0.32121637 0.29054195 -0.3142118 0.2746063 -0.16207017 0.110156514 -0.18987212 0.3409922 -0.20707174 0.13956928 -0.18536259 0.43656582 0.06620925 -0.6340198 0.26678303 -0.30240986 0.19499521 0.22219156 -0.40632877 1.1828144 -0.059049655 -0.7140145 0.3593388 -0.011080709 0.06907676 -0.7323158 -0.26730767 -0.20517415 -0.56839675 -0.13766935 -0.1831926 0.3968422 -0.10398806 0.80047476 0.024658311 -0.028133491 -0.62541646 -0.077553555 0.010777107 -0.42983827 0.73999244 -0.32807812 0.11819289 0.14888886 0.67470133 -0.28373593 0.015241722 0.38621414 0.5172206 0.048123706 -0.034326393 -0.097732164 0.43341294 -0.13233225 0.11191796 -0.091022804 0.12263088 -0.18663892 -0.072726086 -0.14472054 -0.41503388 0.27470073 -0.5133511 0.038028713 -0.19355427 -0.09712863 -0.5414902 0.44325858 0.7243594 -0.09005176 -0.23468608 0.16830882 -0.26923814 0.68598425 0.36841065 0.026490467 -0.52765775 0.27912262 -0.028533498 0.027101653 -0.421407 -0.34604198 -0.46405798 -0.3471554 0.5511878 -0.07119987 0.06960175 0.033498127 -0.6240169 -0.25958326 -0.25464225 0.02367195 -0.45190418 -0.04132189 0.79814726 0.6359886 -0.12072218 -0.33335152 -0.13442475 0.734612 0.6960525 -0.13200465 -0.11348798 0.20264076 0.10651306 -0.22368462 0.19446711 -0.09757902 0.40358305 0.27928516 0.4729089 -0.16183308 -0.7488974 0.3736361 -0.051834084 -0.2898595 -0.031313296 -0.05316361 -0.55905217 0.48899177 -0.023732435 0.30562106 0.08840716 0.03654297 0.016886842 -0.29779318 0.75708866 0.31945178 0.39683402 -0.71888846 -0.94517547 0.05239943 -0.27879295 -0.42361462 0.37284422 0.005953221 0.13193037 -0.036600396 0.45339084 -0.028134946 0.12761064 0.39260557 0.12298627 -0.37048814 0.28355646 0.41345978 -0.0018856669 0.2529422 -0.121927105 -0.26092914 -0.84742886 -0.15990998 -0.09636625 -0.2996026 0.5515971 -0.2999966 -0.53395057 -0.06000928 0.5191953 0.18110251 0.007936795 -0.6097143 -0.004727133 0.08610386 0.1811809 0.044521544 -0.0034050236 0.22380261 0.38540882 0.32458633 -0.39327583 0.6428979 -0.62568164 0.0037089405 -0.38921916 0.12295529 0.18929161 -0.7699518 -0.4107035 -0.34328645 0.27128324 -0.39743596 0.24851708 0.16844514 0.3630595 -0.21021096 0.13755111 0.5557151 -0.41989875 -0.110714115 0.12692977 0.5665873
1 -0.36365977 0.116670065 -0.3576565 0.02011451 -0.16485265 -0.17769842 -0.11831532 0.020768534 0.0021460718 1.6645106 0.0049195173 0.18597467 -0.18819265 -0.26781198 0.3214399 0.18478371 -0.119757645 0.7475437 0.45175198 0.62819266 -0.15725097 -0.43006968 0.1395223 -0.19953737 -0.018540198 -0.029240606 0.25252122 -0.07378282 -0.44471136 0.03704016 0.22685604 -0.28109556 -0.30374625 -0.33238557 0.11769575 0.6100277 0.052904293 0.27571854 0.84300166 -0.09480308 -0.5407273 -0.2718661 0.91257155 0.87983364 -0.38750148 0.49602178 0.27770346 -0.35554174 -0.12792188 0.44082043 0.19015577 -0.7366059 -0.7320884 -0.116412215 -0.31538564 0.28350952 0.38397554 -0.16666134 -0.16483127 0.10938656 0.24488124 -0.055583354 -0.509518 -0.05584644 0.3975872 0.3233438 0.8205952 -0.90021557 -0.21098879 -0.03257623 -0.6046732 -0.054446023 -0.43012312 -0.4743645 0.32620773 0.8805078 0.9410232 -0.21774353 -0.635949 0.60716504 0.06032753 0.034248468 -0.18702057 0.12002761 -0.14029557 -0.101913325 -0.5032925 0.32586512 -0.10776068 0.26309583 0.18917291 -0.8049254 -0.21131983 0.38534784 -0.08923565 -0.6289948 -0.66195434 -0.34409922 0.17947355 0.34304142 -0.51102316 0.2278819 0.2292285 0.31229746 0.56439024 1.2494606 0.020611763 0.09202197 0.226036 -0.24055573 -0.15906483 0.8422822 -0.12276863 -0.4756285 -0.2731655 0.62722176 0.65533894 0.26655808 -0.1700227 0.31406784 0.6443773 0.005847138 0.029321091 0.5915711 0.83398557 0.12258858 -0.11897205 0.17684305 0.09427543 -0.1508321 0.047296412 0.55472934 0.6428761 0.18914872 -0.70861095 0.5758818 0.20720382 -0.2056659 0.66844696 0.35243958 -0.12666737 -0.42819166 0.5420974 -0.040061563 0.27119857 0.09607931 -0.31091303 0.041584738 -0.43488565 0.12182778 0.360072 0.5780682 0.25290242 0.6766758 0.24321975 0.16912499 0.31229147 0.24070846 0.4335873 -0.15396425 -0.5262958 0.23672172 -0.067823015 0.42075625 -0.3300777 0.28040156 0.38953596 0.23134226 -0.5559764 -0.2827949 -0.47117758 -0.3402284 -0.1047372 0.28099698 -0.018230991 -0.41472587 -0.034480575 0.30319682 0.15006095 -0.20349006 0.7455195 -0.31692535 -0.01144608 -0.090538755 -0.25735575 0.2900055 0.3366972 -0.22052902 0.17443451 0.017917495 -0.020807004 0.86285603 0.09241562 0.4302144 0.32676855 -0.0104207825 -0.8203834 -0.55994916 1.0148242 0.20113795
0 -0.00043756672 0.28915343 -0.5176996 -0.14055775 -0.11777221 0.49610174 -0.5127366 0.08692949 0.13630483 1.771942 -0.6475251 0.088193506 -0.3064302 -0.24118505 0.3786203 0.32906252 -0.15978894 0.29155704 0.10052802 0.71683717 -0.36725807 -0.5569661 0.26871043 -0.57726175 0.19468227 0.16930874 0.16521585 0.30416492 -0.71960896 -0.009803233 -0.1468201 -0.21797247 -0.35496512 -0.72510934 -0.08643936 0.5170273 0.19262855 0.026455365 0.7652259 -0.19611625 -0.3126153 -0.46958834 1.3376012 0.30582985 -0.6096856 0.6335042 0.033645697 -0.5420999 -0.49970168 0.93825907 0.49850973 -0.43656725 -0.53086126 -0.0843715 -0.41909444 0.12857382 0.64303994 -0.055908814 0.5918937 0.49111384 0.04239247 -0.546619 -0.25341192 -0.63286495 0.41700417 0.013930489 0.7867138 -0.6608213 0.04519529 0.3237847 -0.4345107 -0.088013224 -0.15588835 -0.4932093 -0.047565643 0.74926937 0.6383703 0.36020824 -0.78602725 0.5975172 -0.27918404 -0.00076495763 -0.3799186 0.6473419 0.11014994 -0.0038184721 -0.6369337 0.43612143 -0.119749136 0.23670758 0.18439566 -0.7068192 -0.009960332 -0.09714373 -0.047412932 -0.61854976 -0.6483033 -0.42084187 0.13361809 0.32452038 -0.3496942 -0.2100999 0.73275506 -0.038339604 0.48597452 1.118789 -0.20085387 -0.21220732 -0.1499287 -0.13292548 -0.26688433 0.42788947 0.38671377 -0.4119921 -0.24715541 0.34141046 0.56284845 -0.029852927 0.11014478 0.0416182 0.5850914 -0.543683 -0.24947502 0.31403035 1.1775275 -0.21058486 -0.33292753 -0.099125095 -0.19938111 0.41021797 0.22509144 0.37112835 0.9679207 0.3418513 -0.77484155 0.43519753 -0.20361339 0.11198684 0.7880166 0.5990003 -0.10451611 -0.18545769 0.89900804 -0.44718656 -0.16482575 0.30652124 -0.36609647 0.014337659 0.023609338 0.004856761 0.6561014 0.41397738 0.41066742 0.68420005 0.6530879 0.2435865 0.33468282 0.29208657 0.38125286 -0.053180795 -0.50695556 0.004649612 -0.09588086 -0.04168491 -0.40521175 0.04115213 0.021133868 -0.09342145 -0.2617175 0.22813988 -0.23080327 -0.8748378 -0.03648458 0.6889814 -0.097639285 -0.50353193 -0.1314667 0.6997411 0.27726153 0.18128628 0.633752 -0.46573457 0.0623309 0.42192325 0.38863784 0.28157714 0.54734564 0.12927227 0.35359424 -0.72166795 -0.033262145 0.41519633 0.42475796 0.31088135 0.5846571 -0.17037018 -0.7615769 -0.5840629 1.1774473 -0.33012763
2 -0.25780115 0.13027333 -0.048243757 -0.012563649 0.042391878 0.1406528 0.046799403 -0.2838453 -0.1195766 1.261245 -0.09979983 0.06724421 -0.024095632 -0.31905243 0.23520885 0.10602269 -0.25321597 0.84070694 0.5056198 0.62653667 -0.26931384 -0.3472295 0.5005082 -0.5332635 0.3101168 0.2140315 0.37503523 0.08006307 -0.296838 0.03124273 0.2595495 -0.09388624 -0.05706674 -0.6537575 -0.08344751 0.58798003 0.098224096 0.29342642 0.6192554 0.20057228 0.026734134 0.24265084 1.0274322 0.50511634 -0.28573018 0.7355701 0.3122978 -0.3419091 -0.5080653 0.32347742 0.43616998 -0.5419312 -0.6808293 -0.3858919 -0.15106829 0.44145465 0.440713 -0.38577703 -0.056937017 0.24508707 0.2446259 0.016133683 -0.21039256 -0.35341203 0.31651422 0.07737575 0.80109763 -0.71214926 -0.11342192 -0.2894059 -0.38155946 0.37623066 -0.82798123 -0.40289596 0.087398775 0.992477 0.92121124 0.10313766 -0.37021798 0.6935089 -0.3757356 0.14957006 -0.5094976 0.14063343 -0.1833711 0.19477993 -0.14120075 0.6712826 0.013457707 0.23518138 0.23223013 -0.45059115 -0.108949475 0.40847665 -0.11629255 -0.6324452 -0.711102 -0.14974986 -0.22786996 -0.04575763 -0.6242865 -0.025100289 0.4253446 0.37002888 0.61408573 1.0532911 -0.009018676 -0.43674737 -0.161226 -0.18909585 -0.27191213 0.33618167 0.16483435 -0.29217607 -0.28999385 0.33374682 0.79374534 -0.013168046 0.14178327 0.16430615 0.53931856 -0.37714735 -0.5121373 0.6148757 1.121727 -0.0031228233 -0.16201407 -0.2156655 0.03886436 0.34591517 0.11316512 0.60260814 0.66463107 0.6545795 -0.9663236 0.7938367 -0.10616814 0.029154457 0.7424094 0.27768052 -0.016351722 -0.3125001 0.34685507 -0.36601108 -0.0668328 0.08891121 -0.16836567 0.21439932 -0.2950516 0.07389877 0.57568854 0.44355983 0.031082993 0.63043666 0.5430056 0.20531996 0.20197031 0.3820857 0.7679077 -0.4298491 -0.12110462 0.36278224 -0.12524645 0.10332806 -0.44938093 0.6090939 0.1896815 -0.025500342 -0.5336647 0.3889317 -0.189546 -0.45894998 -0.2897177 0.41708824 0.15251015 -0.5072899 0.028174572 0.6229322 -0.029612353 -0.16800863 0.8719279 -0.11361836 -0.11750145 0.02724812 -0.14676788 0.38645512 0.46526605 0.030615639 0.26040453 -0.22484033 0.252378 0.7444468 0.10275279 0.29266974 0.5647136 -0.050344836 -0.800417 -0.6731059 0.955489 -0.016040836
。 0.010392074 -0.1748228 -0.15044793 -0.26630208 -0.10062659 0.67164195 -0.93735653 0.5277999 0.8437845 0.45019123 -0.15044719 0.35497066 -0.03091931 -0.2721193 -0.31168327 0.60093385 -0.25897998 -0.41261008 0.06188511 0.17630735 0.5864114 -0.8791964 0.18058407 -0.46734646 0.056920994 0.0488917 0.55435455 1.203395 -0.506298 -0.2058087 0.31217048 -0.23046365 0.03683189 -0.6956338 -0.11065672 -0.053284887 -0.1584725 -0.24180552 0.31131765 0.6388778 -0.14528902 0.6820259 0.62537605 -0.1634736 0.19905733 -0.057996243 -0.1695656 -0.309287 0.5738212 0.071683116 0.3590343 -0.20323792 0.32695213 -0.82346404 0.22896507 0.12297943 0.913474 -0.43839252 -0.29257274 0.32282436 0.34527263 -0.09201088 0.4399842 -0.1871928 -0.43673295 0.09629916 -0.08238488 -0.32360545 -0.42963117 -0.07173531 -0.41602248 0.3149453 -0.32430634 -0.5199189 -0.44524685 0.15835097 0.5417267 0.34049025 -0.24836874 0.34316206 -0.79276514 0.48501673 0.57874835 0.6728832 -0.32547596 0.116871335 -0.14585271 -0.21137668 -0.05711627 -0.057201263 -0.20264937 -0.37523335 0.55168426 0.21845046 -0.26155716 0.38021398 -0.3215486 -0.62266207 -0.047612675 -0.1910273 -0.9739729 0.5348447 0.8173431 0.9278957 -0.35905302 -1.0082787 -0.83186346 0.55548644 -0.08343453 -0.6428697 -0.049487814 0.15388077 -0.22829808 -0.24281779 0.4169629 0.12811531 0.15419151 0.19482282 0.4329451 0.057190068 -0.5488971 0.2412417 -0.5203739 -0.5417854 0.4064247 0.12195597 -0.8936313 -0.6164075 -0.28062356 0.15143855 0.30258816 -0.03288648 0.06536173 0.37313962 0.786768 1.0686309 0.28734824 -0.73966354 -0.19335312 -0.17550248 0.6686706 -0.22721069 0.50452787 -0.5130744 -0.09039789 0.23123097 0.24162588 0.71220654 0.19409378 0.5559672 0.41976348 -0.8786609 0.32531384 0.69532233 0.06240657 0.59567416 -0.17154938 0.07830857 -0.62581056 -0.22959414 -0.32474923 -0.74181354 0.47926292 0.50945276 -0.5142807 -0.13800028 0.8325666 0.27839592 0.054962117 -0.27832717 -0.05779559 -0.25125453 0.629816 0.4803363 -0.32567036 0.25355497 0.045875162 0.42745236 -0.5117661 -0.009198453 -0.05252642 0.29290733 -0.23021248 -0.08522526 0.41462147 -0.3365319 0.064556584 -0.30797663 0.26710644 -0.82291585 0.18993619 0.29451916 0.5795493 0.0927976 0.5358159 0.68275434 -0.46903253 -0.2700845 1.1639857 0.5756558
、 -0.124267906 -0.46179307 -0.7105818 0.42062956 -0.19205399 -0.08725167 0.12956508 0.69784206 -0.35184062 0.45638117 0.07306049 -0.40805277 0.0603438 -0.1349008 1.1486208 0.018616429 0.44670317 0.28501916 -0.86901176 0.44563493 -0.1784725 -0.22640936 -0.17827865 -0.10771191 0.12718675 -0.0030114383 0.59737533 0.13560401 -0.07977656 -0.42936927 -0.2062236 0.40672368 0.37736353 0.5503406 -0.9758991 0.068476014 -0.8291179 -0.055932973 -0.35364446 0.009469733 -0.042528976 0.06297093 0.882881 -1.1329606 -0.63429284 -0.4363383 0.179035 -0.41596037 0.021733753 -0.5217067 0.010988622 -0.4915266 0.43433312 0.002451217 0.54156303 -0.7069343 1.1049676 -0.17447892 0.5479885 -0.43452817 0.21754318 0.10404193 -0.2728992 0.456237 -0.18624398 0.26692367 0.45278382 0.38059282 -0.016063878 -0.23448761 -0.5928469 -0.45828164 -0.53619105 -0.052284967 -0.87116396 0.10062456 0.61481076 -0.7106848 0.7093803 0.6290149 0.17385586 -0.09173668 0.6165197 0.6656067 -0.54207367 -0.13467254 0.31358263 -0.07948335 -0.15977544 -0.03722061 0.27665383 -0.18986517 0.33326274 0.33869866 -1.0482292 0.79167706 -0.071020655 -0.089040644 1.0462369 -0.32929492 0.14547889 -0.08400106 0.06837679 -0.5942434 0.8710712 -0.18716663 -0.56581926 0.14499535 0.3343337 -0.006872498 -0.155472 0.14794715 -0.052765675 0.09962961 0.37053496 -0.05255436 0.28021812 0.4746351 0.31641507 0.5493562 0.1297883 0.38743162 -0.31562373 -0.3257682 0.111341685 0.010833849 0.5230897 0.5261623 0.69723105 0.4879237 0.4286934 0.15066893 0.12939377 -0.20478557 -0.22431122 0.5944585 0.5193194 -0.15416238 -0.87106365 0.11302374 -0.4773563 -0.5445986 -0.28763744 0.28762963 -0.15722756 0.4313815 0.07818586 -0.6668405 0.5811952 0.5773646 0.08037539 -0.9513581 0.46387738 -0.7046302 1.3076196 0.17511985 -0.37782276 -0.13476641 0.50556475 -0.6910014 0.06955466 -0.05484206 0.09514724 -0.7195922 -0.097641885 -0.3824198 0.16191277 0.68752974 -0.9118237 -0.26847756 -0.20587325 -0.5766984 -0.26384905 -0.045430303 -0.0062863496 0.10649168 0.16498972 -0.0782341 0.13700587 1.1510262 -0.7372933 -0.114248626 -0.10790552 0.17445353 0.33220538 -0.2500261 0.055152282 -0.7988729 -0.08986939 -0.16944209 0.8678159 0.44676277 0.33843046 -0.72829336 0.45185497 -0.71125257 -0.072223626 0.59217376 0.091286205 -0.033555124
- -0.06058954 -0.07528488 -0.7124257 -0.2845827 0.17607236 0.30310187 -0.28878465 0.8376057 -0.30563033 1.7349757 -0.9953955 0.37254205 -0.3195619 -0.9191031 0.9369045 -0.5260144 0.3040431 0.42575282 -0.30193928 0.2621408 -0.56474966 -0.7268215 0.017021272 -0.20358075 -0.9628688 0.29113322 -0.28279114 -0.78845555 -0.29000103 0.31126487 -0.34790474 0.11388952 -0.122973755 -0.8429799 -0.1642097 0.7843292 -0.29715902 1.1047177 0.6359684 -0.5336658 0.7381127 -0.14028615 1.8984785 0.30210847 -0.81538874 0.360804 0.5987191 -0.055686958 -0.5388472 0.112262405 0.76672095 -0.09557701 -0.12093183 0.15834947 -0.51729965 0.76380384 0.5173014 -0.60046524 0.79969186 -0.4964438 0.40138203 0.14793842 -0.3104719 -0.28686756 0.16493483 -0.3080434 1.2322387 -0.6315349 -0.23057562 -0.13100873 0.8040356 0.073534414 -0.35281438 0.42966208 0.43779162 0.08806034 1.4349195 0.4473389 -0.37192613 0.6414028 -0.1517044 -0.1042497 -0.39886007 0.9567086 -1.1668427 -0.77680165 -0.43144628 -0.48992765 -0.31881243 0.81178766 0.02430833 -0.21588595 -0.5566574 0.8486443 -0.055003572 -1.4126686 -0.12798442 -0.27609462 1.1236317 0.7326865 -0.88005143 0.79263145 0.5917569 -0.11599046 0.7450582 0.6996187 -1.1928127 -0.19655548 -0.95109 0.02324212 -0.61710495 0.5670419 -0.877301 -1.2355738 -0.23580919 0.0191787 1.3025994 -0.03461887 0.87226534 -0.78918934 0.2735206 -0.53124315 -0.6659336 0.8554936 0.3328658 0.097138785 0.38996357 -0.55381674 0.27584964 0.5979443 0.46001458 0.16421296 0.30232185 0.08046908 -0.34387577 0.8564756 -0.42265037 0.2630151 0.7198741 -0.73660815 -0.50538045 -0.539532 0.5593817 0.16274491 0.8007337 0.68334615 -1.286348 0.38588074 -0.21160975 0.20696156 0.5767329 0.58764875 0.03992339 0.8735334 0.6356524 -0.15849653 0.42845458 -0.041403323 1.1812847 -0.35895842 -0.45108724 0.08341578 0.1623496 0.45292437 -0.5325172 0.33321044 -0.25343072 -0.2506766 -0.19465585 0.91344136 -0.66821706 -0.1021752 -0.35643613 0.8568692 0.139367 -0.17732345 0.17347051 1.0082586 0.12482571 0.12568234 0.42851785 0.009942235 -0.090645954 0.09090664 0.32961035 0.7888612 0.5339377 -0.92378527 0.44024363 -0.1609614 1.0173585 0.5752464 -0.12716281 0.6518974 1.0781864 -0.4385825 -0.12973846 0.031041319 0.53426486 -0.3152289
无 0.050761312 0.35210508 0.08794408 0.9003799 1.0886434 -0.65428114 -0.11779237 0.5130045 0.34691516 0.024911406 0.69801056 -0.754007 0.25502825 0.14258899 0.8734665 -0.60477763 -0.0005783046 0.34526768 0.29878244 0.24506494 0.016800744 0.37243035 -0.29002193 -0.15016533 -0.2414258 -0.10398706 0.9166577 0.3692316 0.59931487 -0.18319432 0.40147573 -0.7761404 0.5082739 0.12825218 0.43213373 0.59541196 0.5252105 0.5188957 -0.9966719 0.02585915 -0.6034279 -0.7576898 0.93867123 -1.3913 -0.038379226 0.16259684 0.5459917 0.01584195 0.108248554 -0.7275345 0.074147545 -0.15625155 -0.7766896 -0.7303061 -0.031194106 -0.4842494 0.5125034 0.9466396 0.896202 -1.0101041 0.24418047 0.31443575 0.13835035 0.67811435 -0.36741012 -0.3866647 0.038529083 -0.01682814 -0.12104023 0.3247452 -1.2271122 -0.9770139 -0.60582286 -0.1380789 0.0777883 -0.25148195 -0.39242092 -0.06001496 0.7001517 1.096699 0.90815026 -0.28324768 1.0237033 -0.034167293 -0.654192 -0.05580452 -0.67311364 -0.21052852 -0.04098335 -0.018974757 -0.08486746 0.2654821 0.65572613 0.42893198 -1.022066 0.37817174 0.06994977 -0.43619728 0.6078059 -0.3681152 0.29466888 0.1918909 -0.58631355 -0.20670402 -0.062521115 0.11387309 0.12816106 -0.07376183 0.32067636 -0.6173286 -0.19180247 0.5328345 -0.3984323 0.79366 0.6200151 0.080402896 -0.7052842 0.07393818 0.72251314 0.20182301 -0.8510089 -0.10466664 -0.3261981 -0.39711693 -0.060704637 0.3998836 0.4458011 0.24749526 2.255888 0.6263021 0.52300364 -0.48397297 -0.85431385 0.50743616 0.34648395 -1.0476 0.4022039 -0.84902567 -0.28327248 0.39242867 -0.29792187 -0.5766863 0.07266677 0.45305476 0.039886322 0.7921144 -1.1887103 0.7682491 -0.18111104 -0.62709486 0.35445645 -0.055059213 0.3809198 -0.4173133 1.2134242 0.65718585 -0.2920951 0.6348259 -0.3716277 -0.7912716 0.67463684 -0.04066966 -0.27431205 -0.3471899 -0.6281871 -0.038396806 0.15816347 -0.14281523 -0.8734069 0.34359938 -0.011295384 -0.07014803 -0.34532917 -0.37053573 0.10379894 -0.7861054 1.0874931 -0.4416177 0.04789444 0.6181886 -0.4418694 0.55056417 -0.6121718 0.4532315 -0.24637997 0.82883936 0.5034684 -0.20547698 -0.26131493 0.4628277 0.40876126 -0.5999269 0.026733488 -0.39600578 1.3044748 -0.91654384 0.61718446 0.5902233 -0.032889128 -0.37167513
术 -0.66495436 -0.41173545 -0.4690457 -0.7470008 0.22175974 0.56883126 -0.19794653 -0.7063541 -0.8811058 0.9374189 0.44439867 0.21031754 0.60697323 0.3347644 -1.026663 1.1660185 0.6428302 -0.15174457 -1.0125167 -0.5057414 -0.05858358 -0.7748859 0.5383403 0.21822123 0.19187407 -0.4237317 0.7428397 0.13119027 -0.313516 -0.33678168 0.46646968 0.016598064 0.56661916 -0.45649213 0.86609465 0.111119986 0.501343 -0.57767445 1.1905067 0.24960269 0.49682984 -0.104976736 0.3635391 0.3341118 0.22175124 0.7359306 -0.14370792 -0.11175728 -0.58739007 -0.3988882 0.6005371 -0.30002856 -0.7456504 -1.4230103 0.32968667 -0.014301394 -0.14078604 0.40988708 1.074784 0.47671664 -0.2487604 -0.2161931 -0.065348685 -0.6973023 0.29911017 -0.52093303 0.43806553 -0.7099585 -0.31147507 -0.18817782 0.51343024 1.139998 1.1534963 -0.29887807 -1.378205 -0.066008076 0.58929586 -0.7763986 0.300859 -0.22749895 0.6247713 -0.16169974 -0.040098008 0.26580074 0.79193306 0.08979897 -0.24016559 -0.45538458 0.0011375746 0.7084446 0.18359782 0.0016458293 0.8556776 -0.34470773 -0.072542205 0.09562535 1.5673246 -0.710853 0.68354565 0.5046573 0.25214842 0.13150738 -0.49849042 0.18961674 0.11844694 0.5113962 -0.7440788 0.4201266 -0.68706983 -0.7443546 -0.49435794 0.5236809 0.5569936 0.18027346 -0.25711438 0.31362215 0.84052324 -0.31819645 -0.14874892 0.75672424 -0.07791157 0.66801935 1.1533554 0.4536088 1.5337852 0.9577809 -0.09923244 -1.006342 0.056273986 0.3046637 -0.64571744 0.83971006 0.19662617 0.7044956 0.04810726 -0.24869215 0.6483905 0.37121353 -0.5727894 -0.4511883 0.31202766 0.037192512 0.0058290157 0.9771731 0.663042 -0.57684684 -0.30457047 1.3832611 0.032487128 -2.0772815 -0.08389968 -0.8681291 -0.22761796 1.1952438 -0.57265544 1.3842394 -0.056482196 0.39948002 0.9892557 -0.44174936 -0.5876057 -0.056470677 0.4092335 -0.08327616 -0.10944087 0.24191003 0.5287079 0.050137784 -0.43154383 0.2306663 0.43709496 0.10248027 0.682626 0.16093428 0.38497916 0.25185603 -0.25503537 0.6339268 -0.19252643 -0.9181464 -0.5034065 1.8895015 1.195557 0.4882759 0.09758441 0.4225873 0.020806175 -1.6820242 1.6776744 -0.9214027 -1.0259807 -0.76139885 -0.45032972 -0.3570186 -0.43713996 0.10689518 0.408128 0.5514792 0.26232055 -1.2892078
后 0.0021431453 0.16797711 -0.48832595 0.59950423 0.46900982 -0.5385382 -0.37467578 0.9738393 -0.2190308 0.3453578 0.1766676 0.36497492 0.32092848 0.6586122 1.1476283 0.25844634 -0.95500004 -0.23589244 -0.047385182 -0.83851707 0.9154305 -0.1361222 -0.82713556 -0.66622585 0.26758987 -0.30255708 -0.9174194 -0.75907046 0.20560521 -0.701681 -0.89777344 0.82142484 -0.46411458 -0.5563366 -0.19542733 0.5470872 -0.038500804 -0.20732442 0.2378406 0.36101168 -0.1612282 0.24720131 -0.36229798 0.80385435 -1.1332939 0.93294483 -0.014040706 -0.45526057 -0.2750602 -0.11495588 0.46651343 0.042828135 0.22936481 -0.8791179 1.1025217 -0.12748095 0.046706293 -0.77771324 -0.87976843 0.30085504 0.12323474 -0.43668365 0.39066198 -0.3039359 -0.9273857 -0.21808712 0.68863845 0.11040084 0.4674249 -0.3787066 -0.6959228 -0.15519433 0.1929835 0.22012466 0.11141913 0.41726413 0.66893786 0.34412155 -0.2206707 0.06008931 -0.11029528 0.5224517 -0.4385339 0.3555018 0.08886799 -0.30545893 -0.16955912 0.65640604 1.0278533 0.36764565 -0.3835703 -0.5916677 0.76167464 -0.5813716 -0.907802 -0.26714495 0.44844735 -0.5474326 -0.7228291 0.30630252 -0.06321298 0.5816239 0.699951 0.3122089 0.056061145 -1.2490976 0.502187 0.71009576 0.5365443 -0.33240154 0.38883764 -0.5642008 0.40911785 -0.010446918 0.61260426 0.16011319 1.2790599 0.34628302 0.66400814 -0.08048351 -1.0951312 -0.5287794 -1.2676228 -0.8460428 -0.10391947 -0.7933447 -0.2915509 -0.10559019 -0.18825923 0.90906817 -0.72075635 -0.15211831 0.020466516 -0.13514961 0.6097916 0.538184 -0.33349556 -0.85644156 -0.13901798 0.028844062 0.7776705 0.8274661 0.84988564 -0.43507048 -0.35540175 -0.035414506 0.41163114 0.19795571 -0.10622885 0.4726783 1.3729044 0.24693424 -0.054954067 0.034054387 0.29609486 -0.5188955 0.3838178 0.46984664 -1.1681321 0.7581012 -0.22782421 -1.0597324 1.3886186 0.17592373 0.45059296 -0.15273918 0.657355 -0.18696044 -0.26533931 0.48139277 0.42189705 0.8334844 0.37525722 -0.22998896 0.56253177 -0.14220157 0.74366707 0.11312864 -0.034361176 0.59265983 -0.36702576 0.941512 0.46564287 0.30999586 0.22428271 0.21817863 -0.3858948 -0.2798627 -0.56618655 0.25766683 -0.86071163 -1.0724033 0.10950694 0.47760937 -0.50024194 0.16753091 -0.79524237 -0.61780316 0.2928143 -0.5605165
) -0.20470023 0.73002887 -0.7552415 -0.397825 -0.31940648 0.49847978 0.32919794 -0.2682299 0.09618035 0.7866342 0.01626954 0.43676925 -0.009303561 -0.96589696 0.4872642 0.26286376 -0.093982436 0.45963234 -0.60240936 -0.00667377 0.33616978 1.135643 0.710492 1.1636076 -0.2483967 0.8825623 0.031362474 0.50141495 -0.22171584 -0.6689556 -0.22268996 -0.15747431 0.18963294 0.1956559 0.03250624 0.65807027 -0.03549706 0.9410673 0.51346135 0.43768036 0.36732045 0.22119527 0.83730817 0.97681254 0.06657782 0.076809354 0.4049024 -0.044088665 0.26813075 0.9431483 -0.8895208 0.016688306 0.25133806 -1.4334985 0.43648955 -0.068699755 0.24036552 -0.27018097 -0.27951816 0.21205737 -0.2160102 -0.111004226 0.14320254 0.4610593 0.03029617 -0.4039759 0.008188974 -0.05527338 -0.48530254 0.3301996 0.42498922 0.33769795 -0.0599856 0.4822025 -0.14952888 0.0953491 -0.2800026 -0.56640553 0.10697543 0.43916205 -0.16902658 -0.53880924 -0.16185585 -0.37513742 0.090613335 -0.4702995 0.056659438 -1.0251702 -0.2495654 -0.19356647 -0.24089505 -0.48857936 -0.79461265 0.038487136 -0.2589994 -0.66069394 0.44680715 0.7396406 -0.11898002 0.41242567 -0.23836209 -0.24952342 -0.016872687 0.0028180736 0.93357587 0.24941562 0.14251374 -0.326393 -0.21365592 0.20040113 0.1297469 0.0014367333 -0.39192337 -0.009138293 0.14580795 0.6705255 0.7289303 -0.8664393 -0.16726123 0.13059388 0.10379588 0.45359698 0.12815379 -0.00069298747 0.38756698 -0.39372635 -0.36710477 0.67167455 -0.1050461 -0.6274712 0.37225768 0.1871781 -0.06815469 -0.6763936 -0.11610472 1.0758548 -0.3418867 -0.25913975 0.7243908 0.2875039 0.15139054 -0.11393252 -0.07227944 0.3485918 -0.6232397 -0.07594324 0.57752365 -0.3327064 -0.32060194 0.5992602 -0.1054144 0.6029646 -0.24036849 -0.5594827 -0.37656277 -0.3875786 0.55155915 0.030123973 0.41899332 -0.41728324 0.2788241 0.12154943 0.10968918 0.39628366 0.22846119 0.519869 0.80788577 -0.79018956 0.31489703 0.25312233 -0.89433414 -0.3504567 -0.16825284 0.83332455 0.22556533 -0.15680364 -0.68192446 -0.18596518 -0.07465927 -0.52895844 0.26151058 0.07289336 0.23748018 -0.22104228 0.26820058 0.5769335 -0.20456874 0.103533335 0.301743 0.40554658 -0.4615584 -0.25670403 -0.13107727 0.27411675 -0.27057692 -0.43949357 0.8030892 0.052687876 0.77965194 -0.52591395
( -0.48087198 0.09818288 -1.0915432 -0.006080821 0.24496274 0.30815357 0.16407904 0.7712594 -0.24869542 1.5396988 0.067890935 0.49989465 0.34086376 0.3160341 0.7240294 -0.26667494 0.29854825 0.13035783 -0.8526785 0.23323618 0.01560275 0.42632753 -0.37838906 1.1586233 -0.1264016 0.33712637 -0.2486763 -0.14820226 0.059140578 -0.39478317 -0.4339473 -0.24988723 -0.4432194 -0.578956 -0.46383148 -0.25908372 -0.10048281 -0.93537074 0.5772124 -0.3410563 -0.5205325 -0.13427676 0.70139664 0.33581656 -0.18209441 -0.55038685 0.19915724 0.21124132 0.022299614 0.11307799 0.12576245 -0.22321348 0.2100578 -0.35747045 -0.011005835 -1.1475115 0.7447194 -0.2531262 0.38054228 0.5330998 -0.24148771 0.79183215 -0.29532105 -0.32376105 0.5855362 -0.0035569584 -0.040581793 -0.26682386 -0.08999008 0.27255884 0.45320478 0.08533059 -0.17556696 -0.73913944 -0.221902 -0.36007774 0.39784133 -1.1878042 0.38011187 0.6112242 1.3274406 -0.29381642 1.161778 0.37049505 0.44157898 -0.09689615 0.6689499 -0.40861332 0.43379515 0.2656061 0.16463026 -0.46438852 0.4643852 0.45243967 0.22568037 -0.951177 0.31447482 -0.9762646 -0.13628402 0.2215899 -0.9472257 -0.20597234 1.0521729 0.48687917 0.3292719 0.75218695 -0.39464426 -0.2460475 0.18115404 -0.7278372 -0.048470754 0.13319147 -0.036846474 0.5801177 -0.7095174 0.13626967 1.5203729 -0.16986921 0.4524171 -0.20379005 0.055543914 1.1763114 0.8516491 -0.7787935 0.38998422 -0.25434473 -0.09772244 -0.24565834 0.3608512 0.113392696 0.12433933 -0.014448576 0.54774165 -1.0504276 -0.14582446 -0.031673532 0.56808853 -0.1448909 -0.33922088 0.79137105 -0.07208092 -0.19325306 0.0066963034 0.1597473 0.16867073 -0.10894694 0.58845884 -0.7214526 -0.35451704 -0.22062252 -0.17901546 0.88140917 -0.81826514 0.25509542 -0.8160067 -0.80354726 -0.17759703 0.6418059 0.28736255 -0.3129729 -0.28662425 -0.56541914 0.24095832 0.020057723 0.02188326 -0.3835586 0.52200615 0.2328762 -0.81374425 -0.0016824226 -0.11464035 -0.38659072 0.24104565 0.054121878 0.2077463 -0.83139163 -0.2738864 0.11473968 0.18045816 -0.03650087 -0.93511325 0.17559108 0.71969646 0.11072914 -0.4818161 -0.1855014 0.3879122 -0.24582048 0.54909426 -1.4902195 0.62887484 0.19660449 0.010314178 -0.7714526 -0.00888007 0.14755061 -0.2457747 0.12895313 -0.15647176 -0.710916
院 -0.26494005 0.9136278 0.37036076 -0.0523737 0.11177607 0.34498242 -1.0126625 -0.79725945 0.37866935 -0.31308678 -0.17925163 0.6174706 0.5391605 0.4810279 -0.16618699 1.0757364 0.47567564 -0.29071233 0.7420451 0.16982768 -0.76019293 -0.022570396 0.4599861 -0.6681265 0.3048409 -0.40913114 -1.135247 0.24003261 -0.93276 0.49979386 0.6774758 -0.5774221 -0.30589995 1.1894797 1.4871588 -0.20053324 -0.21493438 0.3059233 0.46493885 0.5780191 0.62563 -0.017746422 -0.42577958 0.47499534 0.124038786 -0.22689533 -0.43638209 -0.04379773 0.03641278 -0.23321094 0.42133084 1.3062865 -0.62726 -0.021412998 1.040937 0.083769105 1.0872189 0.06904184 -1.2532319 -0.10924331 0.24550931 0.4014091 0.48556224 0.38788563 1.2430385 -0.42961743 0.08418817 -1.4341291 0.93153304 -0.17607154 -0.78791225 -0.098325394 0.22934492 -0.71000344 0.3188845 0.66572994 0.17501992 0.691244 -0.32503638 0.29373065 0.56949896 0.7530092 -1.1078323 -0.075737566 -1.2256448 0.88093 0.06582995 1.4732888 0.27699322 0.5315657 0.34583792 0.7414328 -0.9494656 0.61629194 0.1657713 -0.45411128 -0.35557568 -1.000118 0.6868621 0.5393238 -0.30144438 0.07577442 0.31531084 0.28632104 -0.11238989 0.8443965 -0.054345097 0.32824713 -0.77667207 0.30933413 0.87194306 -0.41095385 0.31401882 0.971073 0.38611352 -0.002570793 0.5761401 -0.5340024 0.8854168 0.29460955 -0.2115176 -0.26366708 -1.0824628 -0.0146324765 -0.43322608 0.66677976 -0.9121701 -1.5981294 -1.4404088 0.90343 -0.92637867 0.49049187 0.6034317 1.2463224 -0.1587494 1.5235944 -0.7654031 -0.50536776 -0.57891524 -1.5589453 0.035188403 0.5071585 -0.08175966 1.3215723 -0.40402085 0.50604135 -0.8645096 1.7469159 -0.4192581 -0.40689856 1.2807395 -1.3855768 1.2482421 -0.86598086 0.79801345 1.0167354 0.52501225 0.78134847 0.78847295 -0.1894095 -0.25857642 0.36363283 -0.34298038 0.6679582 0.6955614 -0.45951515 1.3812089 0.49911544 1.0826037 -0.82882756 -1.2546593 0.341332 -0.24423893 0.8432868 -1.1014463 0.5056768 -0.7460878 -0.1367937 -0.2837018 -1.3467416 0.95851153 -0.29057333 -0.4661858 0.13180336 -0.839266 -0.030671135 0.6835563 -1.0764041 -0.8363865 -0.23876616 1.1425612 0.6624709 0.7591279 0.06441673 -0.7745801 0.027134322 -1.1539754 0.9626064 0.7457751 0.51308995
疗 0.12393831 -0.34134987 -0.6247458 -0.81770426 -0.4487016 0.3759001 -0.8381682 -0.3672375 -0.29034176 0.27152193 0.17927048 -0.22076122 -0.7483944 0.8321416 -0.48527536 0.63117003 -1.1377307 -1.2972598 0.42431396 -0.336549 -0.3033189 -0.7517382 -0.055696357 -0.96184635 -0.28892356 -0.02045182 -0.32761407 -1.2112001 0.14666145 -0.70968235 0.059918985 0.20040293 0.5539219 -0.14409764 0.5750984 -0.34390932 0.040054165 -0.76726913 0.15527667 0.8427914 0.17907853 -0.75153744 0.45826608 -0.9644779 0.29928762 0.98451495 -0.06747599 -0.02262262 0.61899996 0.6977031 0.65505624 0.73199636 1.035833 -0.22096029 -0.6264202 0.22620542 0.63378155 -0.43733573 -1.088297 0.43053314 -0.66709584 -0.14232431 -0.23300597 -0.296645 -1.1220462 -1.2494317 0.12850383 -1.1406971 -0.70878583 -0.15549827 0.53234076 -0.9693267 0.44199568 -0.15425417 0.6088809 -0.33738422 0.5390256 -0.89133584 -0.086852975 0.51351964 0.197687 -0.37922272 0.17755993 0.2913796 1.0926396 0.7652167 -0.5211044 -0.88065034 -0.60740536 -0.7109419 -0.53382325 0.38562265 -1.3019568 -0.13659605 -0.043113682 -0.17583993 0.817304 0.24634312 0.3754909 -0.04297423 -1.659371 -0.101520024 -0.8516343 -0.20353474 -0.24790083 0.86027646 0.033087768 1.7515407 -1.1205698 0.26988202 -0.5073534 -0.44744638 -0.5136051 -1.70278 -0.8026587 0.26611435 0.42444313 -1.1260095 -1.072873 -0.60768557 -0.2789005 0.5602059 -0.07745226 -0.29983935 0.48126116 -0.8645192 -1.2344967 -0.27812943 -0.41495672 0.28927335 0.012031768 0.66954106 0.4998428 1.200842 0.88376766 0.3430548 0.15853193 0.22323741 1.2284456 -0.11079339 1.3157976 -0.1452892 -0.8385454 1.0839565 -1.0712123 -0.022047604 -1.2580147 1.2339092 -0.37508696 -1.105707 0.8857025 -0.83376485 0.18191345 0.40208888 0.40333453 -0.055884548 0.50615925 0.11631497 -0.11582198 -0.24202518 0.020665191 0.28732255 0.590038 -0.28366375 -1.4903787 -0.55767226 1.3700708 0.3016079 -0.3524986 0.29886514 0.5094735 1.0310364 0.034215085 -0.8051197 -0.23889759 0.42339134 -0.010150094 0.45371795 0.18369937 0.6781286 0.5613357 -0.454235 -0.5543068 -0.08400412 0.15769476 -0.3329597 -0.030066231 0.0029027897 1.247877 0.53714365 -0.20284137 -0.2753629 0.3893101 0.729171 0.6857626 0.2057092 -0.13012247 -0.03460538 1.3271044 0.012580645
叒 0.79805225 0.0105700595 -0.6077014 0.1863882 -1.0587903 -0.044809245 -0.42254516 0.37627217 0.19297336 0.5751703 0.1139858 -0.062635206 -0.3983313 0.04299892 0.8648459 0.32213467 0.24432531 0.15051515 0.3075658 0.0077555547 0.089500755 -0.46135402 0.35891527 -0.06029938 0.5713403 -0.16934437 0.4864192 0.27668703 -0.3125626 0.119782545 -0.40762255 0.090913415 -0.14179577 0.24198171 0.21844144 -0.42933503 -0.28100082 -0.49036422 0.44773176 -0.3771046 0.0046900334 -0.013572756 0.73316574 0.040669248 -0.43818107 0.10276775 0.5960356 -1.1108067 -0.14155768 1.0100982 -0.40606213 -0.20932421 0.2399187 0.2692315 0.7810312 0.06676201 0.85987705 0.82768536 0.40023375 0.23545702 -0.6115199 -0.027753934 -0.24912754 0.18569925 0.26506758 1.3062849 1.0631514 -0.5480293 -0.043403696 0.45048806 -0.10613759 1.1674918 0.54397357 -0.5739704 -0.48764825 -0.33742943 0.56257504 -0.24496984 -0.5143391 1.1910937 -0.56152034 -0.35411945 0.112064615 0.4382938 0.60181546 0.9020354 0.5218798 -0.053744156 0.5714241 -0.010322017 0.87846094 -0.3670581 -0.503655 0.82369715 0.07895629 0.08439723 0.03571257 0.050939336 -0.23820075 0.12674065 -0.1583124 -0.19390798 0.05225029 0.07680735 -0.42599177 0.012403316 0.031137593 0.4383673 -0.20170715 -0.00452592 0.53683704 -0.2373324 0.21913426 -0.43945852 1.1112237 0.31889114 -0.2968856 -0.28960493 0.09018458 -0.4657537 -0.23741074 -0.50096244 -0.46400714 -0.32458088 0.2181643 0.20143561 -1.083812 -0.577527 0.17576458 -0.31146145 0.21793419 0.009399266 0.5996877 0.33928242 -0.57396686 0.23694037 0.20666707 -0.09740104 0.6846706 0.7660193 0.38595867 -0.11581878 0.23799384 -0.2618896 -0.23418331 0.31597307 0.06414198 -0.01866156 -0.42271453 0.26126942 1.2098423 -0.7164476 0.64980876 -0.67842144 1.2854801 -0.3029347 -0.5865399 0.42380622 0.50001144 -0.7618846 -0.1375228 0.3335073 -0.6070988 -0.0041245203 0.30016142 -0.053720526 0.621755 0.2787188 -1.0274633 -0.81112057 -0.762359 -0.70990175 -0.426525 0.36488274 -1.3453065 -0.7096795 -0.9804288 0.006697315 0.5490382 0.008680877 0.14698721 -0.34510678 0.5546788 -0.11961563 -0.054484285 -0.14979494 0.7102324 -0.24741347 0.37738976 -0.9870214 0.36905715 -0.3645105 -0.35732996 0.6948882 0.67393076 -0.0073608253 -0.7301631 -0.284257 0.7864455 0.3928674
癌 0.19153477 1.135779 -1.1313031 -0.6612061 -1.3950815 0.13159306 0.18439957 -1.4915925 -0.1488744 0.64770633 -0.37741834 0.9129308 0.29753673 -0.50127363 -0.75366914 1.2433825 0.60999596 -1.0811521 -0.057999954 0.382686 0.9794463 -0.11381777 0.0845349 0.7450998 -1.4990274 -0.37167394 -0.08561988 -0.63484126 -0.5754485 -0.28633115 0.7375871 0.17443249 0.9030589 -0.5527788 0.06476362 -0.010084164 0.34075838 0.4083697 -0.08028199 -0.16753775 0.19041874 -0.5877577 0.57634705 0.86243355 -0.119755276 0.41755858 0.69305414 -0.013114076 0.49664864 -0.72072834 0.15531969 0.50773287 1.14868 -1.1527666 -0.383146 1.1428075 -0.7386491 -0.51541936 0.41891098 0.16580044 0.4028586 0.11483784 -0.52370065 -0.048256524 0.8223053 0.22913991 0.15493946 0.31285003 0.5858084 1.0016593 1.7214427 -0.015018758 -0.037134122 1.2914823 -0.4012177 0.65284413 0.26902494 -0.43280077 -0.10420326 -0.3272776 -0.46716797 -0.49276763 -0.242839 0.43090346 0.7389708 -0.64192367 0.15016659 -0.28585878 0.38897416 0.84398794 -0.5355576 -1.073548 0.39135468 -0.30629513 -0.36505333 -0.5339546 1.0564107 0.7660019 -0.4334273 1.4428215 0.26906493 0.78740233 -0.07920376 0.37903762 -0.3967688 0.6886321 -0.54372597 -0.8697522 -1.2174737 1.2332354 1.5502518 0.68822193 -0.0861836 0.30600476 0.7053825 0.9144499 0.5552382 -0.76000965 -1.4151841 -0.17311767 -0.04218315 0.271537 1.6516521 1.3212696 -0.51652914 -0.4994507 0.018152617 0.8510286 -0.78894967 -0.4724395 -1.0615706 0.6130394 -0.3297703 -0.29977003 0.09015804 0.79312074 -0.48871395 0.18413979 0.9985187 -0.032362644 -0.34833604 -0.5765913 0.8561756 0.029012626 -1.1167641 -0.07211382 -0.41641977 0.33942485 -0.61508554 -0.9017803 0.89724064 -0.18318772 0.6408259 0.3966775 0.44202608 -1.0113218 -0.11851295 -0.99024284 -0.021266885 0.42240146 0.2779522 -0.8500398 -0.14590135 -0.88048214 -0.4848932 0.85231197 2.326809 -0.6070335 0.3399996 0.73046535 0.68010175 -0.35843134 0.5786151 0.16386004 0.6193428 0.8121519 -1.092937 -0.17169744 0.032456033 -0.29296604 0.17619975 0.1469289 0.21132913 -0.24270828 0.9976269 0.2607641 -0.6236834 -0.048380278 -1.0043142 -0.40815982 -0.6106769 1.0323256 0.54397076 1.1250279 -2.0240333 0.72825885 -0.34257278 -0.8441201 0.054968867 -0.29551765
化 0.5962703 0.101053745 0.8877048 -0.09857167 0.2279495 -0.56000966 -0.6772564 0.7052483 -0.21994942 0.49910423 0.73282385 0.631935 -0.012915279 -0.2933187 0.56092817 0.078247644 -0.3412105 0.38764855 0.36976072 0.02795815 0.12254909 0.64885974 0.10060582 -0.016207103 -0.32081425 -0.42575982 -0.032609038 0.427224 1.1765496 -0.4092988 1.2479577 -0.48134372 -1.2541066 -0.21910769 -0.47071227 0.07982567 -0.35939258 -0.07102485 1.1275095 0.2114673 -0.37090203 0.07823851 0.10711322 0.20116572 1.54224 -0.013084741 0.97673947 0.13679713 -0.45209 -1.4819607 0.07984279 0.1116759 -0.005720342 -0.5955795 -0.034896106 0.34187508 -0.50944155 0.9104303 -0.7776133 0.45679507 -2.1198766 -0.48024502 0.52042204 -0.34600487 1.1934828 0.4907845 0.046218984 -0.055623006 0.4169715 1.2193414 0.8142257 -0.6747552 -0.4315784 -1.1200292 0.5441322 -0.42594415 0.84429306 -0.56384915 0.26330224 1.1631777 -0.8549295 0.05540196 -1.3936782 -0.6196805 0.16525203 -0.14362116 0.20212032 -0.2787853 0.8032687 -0.3068537 0.8048637 -0.7946593 0.03661194 -0.0013419772 -1.3105766 -0.9759043 -0.49404824 -0.905294 -1.2891865 -0.28883687 0.4760842 -0.073236614 0.5730431 0.58154404 -0.37324366 0.052590873 -0.78769714 -1.1436664 -1.2444594 -1.196808 0.90514904 0.19588989 0.60124767 0.26494744 0.33505377 -0.5952969 -0.44498783 -0.108995564 1.0274931 0.21292232 0.24000697 -1.486919 -0.8042571 -0.35954943 0.19781339 -0.5731406 0.32101703 -0.47860214 -0.41182563 -1.046509 0.22685993 0.568601 -0.8520983 0.21229897 0.015227997 0.32976788 -0.43978652 -0.5354929 -0.16359533 -0.14486001 -0.30223727 -0.6728159 1.2165885 0.118270464 0.28823066 0.30506122 0.69289184 0.17389044 -0.052353043 -0.452135 -1.617981 0.016370853 0.60887605 -0.32869518 -1.3075563 -0.17456307 0.30638862 -0.15214446 -0.5895096 0.15304859 -0.92685187 -0.92731375 0.39944047 -0.72374064 -0.74801284 0.9965268 0.3312792 0.8244923 -1.1030935 -0.11113686 -0.005072228 -0.11018415 -0.17881215 0.06016215 0.5330763 -0.19971694 0.24751477 0.5935588 -0.4766232 -1.0773543 0.0116092255 0.80775446 1.2347404 -0.9807528 0.45970872 1.1047455 0.8203721 -1.622414 -1.025824 -0.90254045 -0.11040795 -0.08138343 -0.37711284 0.4342375 0.4174895 0.9196136 -0.37504166 0.7176976 -0.66465443 0.43739432
. 0.6351471 -0.1650818 -0.23887338 -0.35024294 0.30619612 0.48552167 0.32587326 -0.1981062 -0.27008325 0.10195604 -1.3727487 -1.0719924 -0.6929808 0.097196005 0.5877833 -0.12920149 -0.40335658 0.36590353 -0.2715802 0.060606718 -0.3380396 -0.60020626 -0.12859869 -0.36900395 -0.17515707 -0.4108869 0.07469227 -0.72240204 -0.8491609 -0.09552904 -0.5962213 0.4183852 -0.14215499 0.27329838 -0.056965012 -0.4058982 -0.087033845 -0.13306168 0.8753738 -0.1653715 -0.085965216 0.0045402353 0.9649579 0.13588734 -0.4819406 0.59115285 0.26829436 -1.1154984 -0.06841007 0.30404738 0.3226566 0.4033767 -0.24619907 0.8708278 -0.18988387 1.1168219 0.73541254 0.4368959 0.82878274 0.0035617712 -0.5610357 -0.3398567 -0.51744217 -0.37721607 0.27531016 0.66322315 1.3473752 0.10265316 0.14288394 0.08079314 0.42660424 0.13454154 0.08715276 -0.34357855 0.25625584 0.2888845 0.36509436 0.7403535 -0.16648267 0.5428931 -0.75586694 -0.89629877 -0.46866858 1.1581523 -0.70629317 0.69102466 -0.30533266 0.86916023 0.11665087 -0.25692466 0.5682557 0.102827094 -1.0613929 -0.036402714 0.59886855 -0.9536776 -0.8879468 -0.20527153 0.34194282 0.5034671 -0.1490839 0.12719233 0.023271516 -0.21245708 0.93311375 0.18356052 -0.38835278 -0.40268394 -0.057390284 0.69041294 -0.16972765 0.22247143 0.10075527 -0.4984859 -0.34008166 0.28239468 1.1789938 0.37581557 -0.71625423 -0.36894804 0.3834869 -0.38212308 -1.0885445 0.35838717 0.37106472 -0.46264187 -0.18050353 -0.37276164 0.8236562 0.4615611 -0.21874107 0.767598 0.09675196 -0.21940269 -1.0072573 0.51183236 -0.1774474 0.11381539 0.68224716 0.22439544 -0.2501799 -0.12078282 1.0941781 -0.35859114 0.68977714 0.97103316 -0.07099998 0.28151667 0.65755594 0.6537209 0.40287495 0.024669185 0.9507566 0.5765023 1.5518054 0.034906458 0.52740866 -0.06395294 1.1646587 0.96712416 -0.1844237 0.22266212 0.10041166 0.23713857 -0.524134 -0.7302457 0.21431626 -0.39769185 -0.8971623 -0.90980244 -0.11114 -0.8595054 -0.32248715 0.8250246 -0.86779374 -0.014328103 -1.1149402 0.61806005 0.11930652 0.33925742 -0.3073069 0.25641567 -0.07557027 0.67647195 0.60601866 -0.44374603 0.7902544 -0.62187445 0.25571725 -0.15640812 0.11633082 0.9072865 -0.02341717 0.6338072 -0.011844062 0.01738915 -0.51331913 -0.89958376 0.57867026 -0.5817723
3 -0.031443067 -0.043571144 -0.09888637 -0.093708724 -0.15176645 -0.026623813 -0.2147274 -0.31275684 0.09590834 0.8556232 -0.07876958 0.07839917 -0.25804153 -0.22903357 0.14694193 0.021954004 -0.81569844 0.52331114 0.5908602 0.9305247 -0.019148806 0.07289101 0.39029837 0.22627634 0.4330094 -0.05910687 0.25173685 0.02770217 -0.16027005 -0.22029108 0.21526434 -0.14499679 -0.16931961 0.14451025 -0.09438545 0.45060155 0.2834291 -0.2785691 0.6297734 -0.088210516 -0.9590615 0.06082773 0.6468905 0.54370004 -0.002357384 0.7985402 -0.035238214 -0.5629281 -0.20490094 0.20040484 0.18773788 -0.26877445 -0.6674941 -0.099681884 0.11414192 0.33359054 0.37861726 -0.2466604 -0.11880345 0.3712814 -0.30764905 -0.2568158 -0.28692 -0.3416141 0.44419444 0.16701359 0.73934805 -0.36695123 -0.0062811887 0.13385202 -0.4994981 0.17937192 -0.56586295 -0.6442282 -0.1776752 0.6595864 0.37671804 -0.0153823625 0.06213988 0.5535621 -0.21502958 -0.31983432 -0.2198471 -0.10162095 0.025003275 -0.105996184 -0.38993174 0.31103948 0.24838053 -0.32623932 0.36036724 -0.6177603 -0.40812936 -0.37203947 0.12970926 -0.22985858 -0.63708067 -0.6506936 -0.8801123 0.24037983 -0.56805074 -0.2240088 0.12258871 0.11715245 0.036644123 0.9026556 0.30299205 0.16852474 0.19308424 0.059394274 0.26358718 0.50551707 -0.08235902 -0.29173806 -0.36458686 0.5664566 0.5968276 -0.073069766 -0.05792433 0.30510253 0.5198958 0.025409639 -0.4746278 0.24693438 0.7780698 -0.3681482 -0.016794734 0.10018319 -0.08315527 -0.09049452 0.23571524 0.31188056 0.712541 0.23042543 -0.28652805 0.39818776 0.18326841 -0.07073318 0.57404536 0.8815367 -0.09242811 0.020214366 0.49128357 -0.27586675 -0.057357423 0.004298227 0.012233314 -0.24905024 0.057179574 0.29964265 0.17317179 0.4142324 0.34028956 0.5153178 -0.15921687 0.040045556 0.51329315 0.16199608 0.19511329 -0.37841454 -0.16445418 0.18238606 -0.14242972 0.2822191 -0.5026963 0.17481926 0.46386066 0.55249596 -0.77686673 -0.28593406 -0.5882402 -0.4920932 0.13995832 -0.03298638 -0.17964858 -0.1648411 -0.061134387 0.12183437 -0.16221903 0.31136483 0.3067255 -0.22006328 -0.069822416 0.07625314 -0.15892413 -0.06665942 0.39827612 0.17524756 -0.14948288 -0.4760611 -0.19294928 0.76943284 0.11552869 0.5960376 0.048387535 -0.090072475 -0.57063556 -0.6882686 0.661173 0.03536449
4 0.055435393 -0.34320846 -0.25166816 0.32366467 -0.5169501 0.14019121 -0.0938026 -0.42532936 0.116035074 1.0191125 -0.16148786 0.06474878 -0.2361153 -0.021098644 0.20882425 -0.48575193 -0.6240331 0.5488466 0.4697618 0.6872085 -0.26060236 -0.16230434 0.4442357 -0.011112432 0.47834074 0.19501723 -0.08421295 0.20115292 -0.051396888 0.05229131 0.017509982 0.07885398 -0.1518356 -0.4945758 -0.043972444 0.7551028 -0.15941122 0.17513663 0.117488205 -0.18201752 -0.59003806 0.4502463 0.9442928 0.5686141 -0.12124823 0.6365391 0.12249333 -0.4739206 -0.105001196 0.5445814 -0.14568014 -0.28700384 -0.47524258 -0.33688256 0.054926552 0.5298789 0.5410408 -0.008567002 -0.28340477 0.26270276 0.18430859 -0.35659236 -0.38708633 -0.12859343 0.48648942 0.36426654 0.6135961 -0.21091366 0.0935657 0.16300048 -0.4236212 0.38816163 -0.51263994 -0.37804398 -0.09260712 0.36515945 0.47924805 -0.07808828 -0.0892762 0.790205 -0.32116678 0.15453231 -0.28339753 0.044966847 0.14148493 0.18592823 -0.4520604 0.23782893 0.1967072 -0.1942161 0.3073508 -0.2875912 -0.6111096 -0.17621051 0.05030664 -0.48706585 -0.6074091 -0.51714003 -0.36441854 0.09429063 -0.64238095 -0.07895708 -0.03949714 0.4006337 0.044864994 0.68950117 0.26456863 -0.22392584 0.34687403 -0.18625192 0.3668609 0.5584507 0.106427185 -0.36390936 -0.12724444 0.43108848 0.29715678 0.1308405 -0.025302758 0.013034147 0.59747946 -0.26700917 -0.36055765 0.31637752 0.8380587 -0.117343985 -0.098091364 -0.1164637 -0.31095392 -0.17353797 0.1044651 0.08373934 0.6655524 0.22222489 -0.43447697 0.4409201 0.2484509 -0.011614295 0.4977659 0.75485563 0.04023523 0.029255874 0.48647693 -0.17661572 0.061690368 0.34078223 0.117678635 -0.086416416 0.04087143 0.3344962 0.49699283 0.5665678 0.2110903 0.5395812 0.32323828 -0.22959407 0.25879714 0.31181455 0.48924515 -0.5436595 -0.20009403 0.26172072 -0.21078275 0.16533461 -0.24326462 0.27127582 0.39138943 0.28924447 -0.96556014 -0.15871774 -0.75319886 -0.434346 0.049980555 0.23042841 -0.26929563 -0.4662501 -0.27359957 0.5086818 0.003981359 0.5061134 0.6572978 -0.09221818 -0.14502977 0.039142545 0.05516015 0.064813934 0.2918751 0.1347884 -0.046586305 -0.3392432 -0.032882694 0.97304857 0.046415653 0.44473183 0.46175766 -0.33529437 -0.72852916 -0.5478001 1.1011815 0.16736197
5 0.09620728 0.15408285 -0.20871402 0.0793306 -0.107956365 0.10572789 -0.18616088 -0.45541966 0.08182982 1.2670213 -0.5137446 0.0114817945 -0.20896113 -0.2964155 0.32853296 -0.07729466 -0.4349712 0.7335777 0.343651 0.740255 -0.3579739 0.093600735 0.15412086 0.0011016944 0.18406454 0.18502724 -0.002932324 0.42498744 -0.2641173 -0.21426694 -0.0058978745 0.11281162 -0.07058962 -0.62286794 -0.015427923 0.44448936 0.21743989 0.028177744 0.4849027 -0.39266965 -0.7536586 0.29668996 0.68801177 0.45949337 -0.16029936 0.53660446 0.059183236 -0.51929265 -0.026614316 0.5869956 -0.024471544 -0.1085776 -0.6000911 -0.22315507 0.1279775 0.45171654 0.5305868 -0.088517286 0.22419302 0.33634952 -0.22790287 -0.21839134 -0.28569055 -0.23024471 0.7062927 -0.260585 0.63993174 0.10007417 -0.027581604 0.4526496 -0.47333872 0.0041097677 -0.65422857 -0.4859967 0.16088617 0.58300656 0.5172005 -0.08526122 -0.11325439 1.018834 -0.20370771 -0.18358585 -0.16771835 0.08680693 -0.045256697 0.052339576 -0.49215522 0.24003196 -0.15600002 -0.24207349 0.5067651 -0.5151099 -0.3018426 -0.027530447 0.34058523 -0.30473635 -0.68601155 -0.5673103 -0.4171336 0.032541078 -0.26173434 -0.51529574 0.17949057 0.484439 0.15000615 1.0716641 0.21653606 -0.11705888 0.30934298 -0.03401053 -0.054939665 0.5803304 0.3033553 -0.2750181 -0.18401875 0.7478638 0.49145344 0.22470056 0.05246378 0.1580486 0.6615453 -0.08183484 -0.56675553 0.21459547 0.82941884 -0.50457126 0.13065015 0.4969478 -0.113253914 -0.29519448 0.23485078 0.23490027 0.86317736 0.27039233 -0.8242831 0.3210698 0.17897685 -0.22552216 0.8846353 0.7536585 -0.07699859 -0.091403246 0.5415382 -0.24188669 -0.11517654 0.12541959 0.15092823 -0.1679284 -0.042444974 0.40226272 0.05556842 0.48608536 0.13795826 0.4849644 0.22776473 -0.31283104 0.61069787 0.105653 0.20307186 -0.19991976 0.059410453 0.3747764 -0.0038198421 0.05930309 -0.52677006 0.00994727 0.34609953 0.22880551 -0.670504 -0.15545273 -0.26870683 -0.55321676 -0.04666832 0.3080502 -0.1374781 -0.17248505 0.0671009 0.51695496 0.042066336 0.41099912 0.4459754 -0.2239047 -0.30749455 0.122710675 0.11710807 -0.23598689 -0.050851725 0.42377707 -0.11848372 -0.4088976 -0.11339042 0.8086142 0.52154136 0.5063552 0.22098504 0.011557272 -0.5510459 -0.91087484 0.75026107 0.07888464
结 -0.8761159 0.15355755 -0.105126746 -0.8601845 0.88415366 0.9679893 1.0506452 -0.40328494 -0.18053283 -1.244012 -0.13656862 -0.61815757 0.45910355 0.8791977 0.40442836 -0.48050562 -0.14333306 -0.62017035 -0.30049917 0.56565136 0.95258266 -1.0723759 0.67263263 -1.291337 -0.5147341 0.3517048 -0.9611341 -1.0409734 1.2291136 0.57733685 -1.0894433 -0.90727526 -0.56860495 0.34457234 0.19176657 -0.13263334 0.20620592 -0.61585724 -0.28888705 -0.7123463 -0.20460498 1.3190392 -0.27262768 0.96841455 1.0067481 -0.02643082 -1.0323318 -0.6585442 0.21922657 0.31315225 -0.3652251 -1.3846196 -0.3356586 -1.4628718 0.3824988 -1.0971708 0.41033584 -0.9979595 -1.3844486 0.41531736 0.742923 -0.325326 0.45680022 1.2569771 0.29626822 -0.25011098 -0.49930966 0.047409344 0.5089028 0.58262396 0.65357065 0.4451868 -0.7968501 0.47983894 -1.3667753 -0.67975044 0.23664461 -0.16174391 0.30259338 0.057054125 -0.33826688 0.50969505 0.7304658 -0.028782485 0.55866855 0.27018797 -0.11993649 0.501836 -0.64570326 0.5762548 0.22655874 -0.9220833 -0.0006030771 -0.15477638 0.49188817 -0.6440481 -0.5620874 0.18168223 0.76089513 0.3246198 -0.56614995 0.5119102 0.22996412 1.14914 -0.024197752 0.5463829 1.0636152 -0.81492245 0.58450556 -1.3352394 -0.026326591 0.42971405 -0.9051262 -0.026474627 -1.1605394 1.1180067 2.0842247 0.5384432 -0.24523939 0.97789025 0.25462118 0.77608883 0.9104282 -1.6178502 0.82740986 -0.82000077 -0.6901185 0.6002986 0.4800542 -0.79867804 0.19886635 0.8457964 -0.16796754 -1.2954007 -0.5314526 0.6349665 -0.71089846 0.64155376 0.6991456 0.83293235 0.42480454 0.56324714 1.8469149 1.0105168 0.65595186 0.14089482 1.2725096 1.454977 -0.22184548 -0.19463709 0.46387148 0.8881589 -0.9532843 0.7038303 -0.0028064116 -0.415789 0.27540785 -0.6103863 0.046339177 0.06123476 1.4916409 -1.4265853 -0.24291088 -0.03387256 -0.008193156 -0.23730639 1.1775135 -0.7490883 -0.5061218 -0.59103537 -0.9249509 -1.2768106 0.95916677 0.7574156 0.74685574 0.13217683 -1.0906886 0.2256417 -0.4203737 0.21591985 -1.1388838 0.952257 -1.7406361 0.7911726 0.42375004 -0.4858282 -0.920591 0.13996318 -0.15028276 1.7183405 -0.4198205 -0.23105806 -0.9019314 -0.6881959 -0.8881577 0.3099415 -0.5488392 -1.4646635 1.1910273 -1.1985995
m 0.9785997 0.83123535 -0.08699252 -0.287905 -0.11006272 0.38111636 0.71962863 -0.43797708 -0.28670368 0.48661593 -0.87713903 -0.26136726 -1.1579497 -0.1981733 0.9177568 -0.33639732 -0.033863574 -0.19457677 0.21341825 0.05694549 0.13963461 -0.5921082 -0.17398077 0.9941057 0.10661132 0.1732169 0.102951646 -0.15885647 -0.80282956 -0.4906206 -0.055131383 0.18978024 0.30501333 -1.1263429 0.26583263 -0.94619465 0.15049106 -0.51982063 0.85382015 0.18537135 -1.2881663 1.4147704 0.1724283 0.20311621 -0.43520886 0.54939723 0.84376705 -0.41861153 0.91369563 0.1874241 -0.4108385 -0.111747615 -0.27027345 -0.5409193 0.5814244 0.220262 -0.2777742 -0.49370247 0.9293662 -0.06358548 -0.06867014 -0.1428721 0.69564015 0.17716555 0.56222004 -0.17503901 1.0364492 0.73339987 -0.12115655 0.14167082 0.66522145 0.9025373 0.31747767 -0.9463931 -0.4211713 -0.37685823 0.20140603 -0.08195891 -0.61225635 0.31465334 -0.42494732 0.08289407 0.27459574 0.4666977 1.309739 0.65776134 0.58937985 -0.13951863 0.016362483 -0.604858 0.8896299 0.103275836 -0.7291999 0.025901642 1.0702904 -0.36689097 -0.48235938 -0.25999653 0.35167477 -0.28997058 0.1695961 0.660991 -0.14131327 0.023367645 0.98950773 0.27354822 -0.3004884 -0.33084434 0.7548951 0.9620686 0.28590304 0.5807388 -1.1447226 0.8727408 0.5394432 1.1493806 0.7764166 0.21861708 -0.23088712 -0.63417566 0.40489495 1.1127319 0.15385498 -0.6536963 -0.69788766 0.1286726 -0.58196187 0.3179942 0.880687 -0.039893974 -0.5006533 0.48452446 0.31858265 -0.85606307 -0.4319503 -0.38775712 0.6564821 -0.22166283 0.47518766 -0.40317816 -0.8822344 -0.19562277 0.36761555 -0.18482861 0.07655935 0.22687533 1.0852038 -0.28336155 0.21862687 0.84377027 -0.52953815 0.1258996 0.14831835 -0.28533688 0.7096931 -0.4906163 0.74132925 0.30565387 1.3417287 0.47569463 0.39685676 0.12050841 -0.06138664 0.4416537 -0.02373735 0.32909906 -0.25323892 0.30302557 -1.0707276 -0.6149938 -0.33296907 0.79385006 -0.60203624 -0.11471514 -1.2225472 -0.14353077 -0.52291155 0.3756422 -0.36175582 0.36910072 0.5754041 0.06293303 0.31678268 0.20687038 -0.49556887 -0.2937329 1.0552224 -0.14881821 0.23531501 -0.7289767 0.12201529 0.2671805 0.38452452 0.78713393 -0.49177963 -0.4462649 0.46379846 -0.46378064 -0.37866184 0.15523134
腹 1.6401814 0.56636 -0.53503686 0.74079514 1.2710954 -1.0875026 -0.75004566 -0.23034078 -0.9817744 -0.22935537 -0.53063184 -0.15490626 -0.4989152 -0.16148968 0.22539043 -1.4010842 -1.0395312 0.18541437 -0.05688449 -0.030686595 -0.8543206 -1.0299755 -0.9209114 -0.82981175 -0.32483017 1.2237409 0.43237236 0.10687583 -0.3789539 -0.121358156 0.61677486 0.8386631 -0.7696489 -0.63566196 -0.00135331 1.9553783 0.08282155 0.6101201 -0.6817817 0.811301 -0.89119965 -0.16766793 0.18409197 -0.22822045 -1.9293691 -0.44979835 -0.20214973 0.13356769 0.28120476 0.20996429 0.0131044965 -1.128011 -0.18950109 -0.5144308 -0.80785805 0.048190024 1.1145256 0.07853195 -0.22666198 -0.09467666 1.0768744 -0.48666456 -1.0559053 1.564365 0.46063167 -0.3113843 0.82034564 -1.9351672 0.26674747 -1.4959905 0.23212245 0.020954784 -0.3741455 0.6871291 -0.5046616 -0.52558935 -0.14706613 0.49219894 -0.114347875 -0.7325822 0.7869783 -0.9186163 -0.7830489 1.0090783 -0.19095254 -0.11340175 -0.29257214 -0.18517953 0.077695824 -0.12437762 -0.04232052 1.5902419 0.7033747 1.0274991 -0.4199622 0.5030411 0.089067005 -0.069701396 0.60109997 1.0883656 -0.05181471 0.16611294 -0.9387011 -0.34427434 -0.15550616 0.5969702 0.69899625 0.014480196 0.7551924 0.7133582 0.12600328 -0.03815586 -0.04985509 0.4130264 0.111459486 -0.071420796 0.9522375 -0.7128992 0.23915829 0.4558333 1.1404134 0.9555725 -0.6672492 -0.43637827 1.331787 0.6288958 0.3068118 -0.4066307 1.2749991 1.3628094 0.21319526 -0.5824213 0.24383011 0.6822684 0.026553487 -0.485578 1.2603799 -1.0861313 -0.36164594 0.8510037 -0.6806963 -0.18864186 -0.91981936 -0.96366817 -0.7205188 0.8055824 0.13711955 -0.07802821 0.4384052 0.17286529 -1.1764435 0.9523815 -0.65641385 -0.2970507 -0.3582008 0.5552233 -0.51009196 1.003025 0.21864723 0.24893138 0.11929925 -0.23279372 0.547419 0.3482772 0.27129668 0.19692777 0.3738005 0.19773702 0.63591075 -0.7704892 1.0446296 -1.1376398 -1.6201949 -0.025169358 0.81742966 0.70811915 0.017106785 -0.5044942 -0.86701447 -0.30185458 -0.30943987 -0.32178268 -0.14328913 1.1900378 0.5634155 0.06135461 0.47021198 -1.3068489 -0.21727656 0.5246118 -0.12150888 -0.9878957 -0.40278214 0.99176985 -0.6796531 -0.6575634 -0.093361795 -0.18735257 -0.26124305 -0.036485318
患 -0.38880473 0.6295747 -1.181836 -0.12714477 0.40031844 0.031085247 -0.4868958 -0.8291942 -0.6733832 0.7250798 0.88122344 -0.17361335 0.5390915 0.25608957 0.9273829 -0.07917246 1.1919941 0.21103902 0.81823575 0.14650203 0.39396107 -0.5319372 0.4406416 -0.9377097 0.1763249 -0.04931911 0.3084695 -0.4865123 0.39746863 -0.48096243 0.6001952 -0.065454565 -0.7236847 -0.81317675 0.9892812 0.62330323 0.33434665 0.04078423 -0.49626234 -1.0397042 -0.37941304 -0.20678352 0.13615154 -0.26365003 0.69293016 0.23792256 1.0610807 -0.27664724 1.1035068 0.24715728 -0.7638779 -0.3051796 -0.73934835 -0.75100654 -0.36026543 0.4102103 0.8833261 0.78198254 -0.98302364 0.0008589362 0.2762191 -0.46967492 1.1301807 0.5277185 -1.7282562 0.4613047 1.3197042 -1.4409705 0.31421652 -0.24617614 -0.6475389 0.5340024 0.23932484 -0.8383478 0.31464693 0.67411286 0.38794047 -0.21088906 -0.9223283 -0.20302449 -0.19171426 0.08594813 -0.9311283 -1.2108098 1.4784887 0.59185165 -1.1236844 0.55121595 0.40522882 -0.34886777 -2.0843117 0.2614148 -0.09969285 -0.16414736 -0.5152048 -0.5296365 -0.25759655 -1.3737807 -0.26253474 -0.10025649 -0.33772603 0.15221296 -0.82920665 -0.47510535 -1.0626032 -0.6257171 0.9046523 1.3469151 -1.1533141 0.67070854 0.7988276 -0.7720275 0.1651774 -0.28315777 0.17636485 -0.5855944 0.05482544 0.04624343 0.5863373 -0.2919527 -1.6491455 0.61573166 -0.38403895 -0.24022233 -0.7064369 -1.0501605 -0.5434423 -0.47387528 0.56899595 -0.32086754 -1.2628956 -1.1822172 -0.23448859 0.9460224 1.1229109 -0.9199015 -0.40549713 -0.40321013 1.1546457 -0.18450506 0.35233685 -0.4468295 0.7550926 0.6268607 0.14736451 0.77240044 -0.34711334 -0.17079276 0.5799958 -0.5354802 0.70432955 -0.77606106 0.77942353 0.52585614 -1.0188298 0.42234352 -0.6861829 -0.46385834 -0.14645217 0.1883532 -0.3893313 -0.77954566 0.062392622 1.0256704 -0.8653017 0.8222845 0.33483785 1.45198 0.87900007 0.2082367 -1.3722136 -0.226911 0.22397406 0.004874952 -1.6188041 -0.5011235 0.15645452 -0.6873038 0.49880204 -0.35727516 0.32309657 1.1408724 0.3809413 -0.53752625 0.54701495 0.90690756 0.6124982 -0.41440627 0.27207488 -0.11457196 -0.49767682 1.005205 -0.6488964 0.8011023 0.743877 -0.63475555 -0.04656677 -0.44121262 0.7859588 0.45792258
肠 0.16968939 0.7264758 -0.343711 -1.6146699 1.3880023 0.56985104 0.96764886 -0.3664713 -0.41665363 0.74716455 -0.65128297 0.8292949 -0.34188256 -0.56088376 -0.4849746 -0.023060787 0.026279144 0.2721893 -0.949519 1.9737216 -0.24316214 0.60352796 -0.89093554 0.9608744 0.524688 -0.5741652 0.6243925 -0.9763429 -0.70130455 -0.96392834 1.1305397 -0.60576546 -0.27863157 -0.19231595 0.22901718 0.477934 0.09579945 0.36115193 1.1798071 -0.08949827 1.6867349 0.37943026 -0.53925294 0.6830555 0.5872834 -0.4989589 0.45520282 1.5794157 -0.025423018 -0.3426774 0.6668926 -1.7219194 0.51437193 -0.64464855 -0.60872024 1.1741649 1.6244949 -0.9931901 -0.16180216 -0.35203478 0.1771822 -1.1964569 -0.6078598 0.48124304 0.7584167 -0.43991172 -0.5134392 -0.18168934 -0.35681853 -1.7336224e-05 -1.2236913 0.25547683 0.41727856 0.44654483 0.82093364 1.0772042 0.052923825 0.1142109 -0.024243627 -2.150652 1.3491505 -0.728114 0.59715235 -1.8550781 -0.6051417 0.2940987 -0.39373055 -0.18652688 0.5102821 -0.15124075 -0.9324591 -0.27094743 -0.17927876 -0.7068291 -0.8351063 -0.5787155 -0.029409064 -0.89317834 -0.49433073 1.1651968 0.57167304 0.36609533 0.7481063 -0.28350103 -0.07033951 0.55009955 -0.024717702 0.014955149 0.18289532 -0.07176966 0.5744138 -0.8640383 -0.5432464 0.7572704 0.3848151 0.08436504 0.72831213 0.85668904 -0.30422217 0.050329033 -0.2224232 1.0911858 -0.032487616 0.729253 -0.13710663 0.30372524 0.7695563 -0.58236116 0.5267568 -0.3413414 -1.2395965 -0.24856572 -0.504856 -1.0609717 0.48644894 -0.2851208 1.3892795 0.7469248 -0.6543539 0.20668334 0.68059087 -0.33315077 0.7445178 0.17706947 -0.09536597 0.76531875 0.014279566 0.50783676 -0.15031445 -0.07094239 0.7119218 0.8113418 -0.42683375 1.2597028 -1.5185505 0.83905756 1.0466319 0.28612638 -0.115588605 -0.76192814 -0.587791 -0.5386303 0.9351198 0.3668639 -0.69316775 0.23668008 -0.058243476 -0.39962173 0.48907158 0.04668626 0.19111945 0.48538023 -0.4781352 0.5825768 0.40643963 -0.4511508 0.5968432 -0.068790235 0.9009373 -1.1616292 0.1817845 0.06816775 1.542572 0.3219606 0.5350149 0.08072191 0.24769326 0.113601945 -0.24258834 -1.4439532 -2.3713117 0.90611774 -0.48564222 -0.2518701 -0.9626079 -1.4535656 -0.7119472 -0.09908958 -0.58361685 -0.16224514
者 0.950093 0.18063325 0.20988323 -0.24279302 -0.26271623 -0.16739239 -1.0735962 0.46062633 1.3104783 -0.06251815 -1.0400418 -0.16985358 0.68857044 -0.58690864 0.8781835 -1.0366997 -1.7130783 -0.9914238 1.0374448 -1.3665601 -0.082613245 -1.0748736 0.9309602 -0.31446618 -0.46922135 -1.8377502 0.17944819 1.1478567 0.23712803 1.678536 -0.25258088 0.13075553 -0.061607808 0.03959105 0.72172934 0.7024314 1.1920718 0.21830173 0.3014866 -0.08081917 -0.13210116 -0.22562373 -0.25183362 0.9468069 -0.2669053 1.1107081 -0.4551609 0.30755475 -0.23763326 0.60652107 0.08901755 0.14523004 0.0812823 0.067738794 1.1575352 0.5063182 0.5810574 -0.54665077 -0.26514757 0.4180325 0.5766205 0.20988862 0.48495093 -0.96577996 0.1607405 0.5036506 -0.39495233 -0.20797276 -0.57251865 -0.37537575 -0.35298607 0.13463129 0.003304412 -1.2273014 -0.13779545 0.45955014 -0.32471794 0.1811091 -0.08246746 -0.06581038 0.6302239 -0.439331 1.1071883 1.3440608 -0.43584317 0.65565246 -0.31938505 -0.4522278 0.7388892 1.9287062 1.5012017 -0.05737166 -1.0894451 -0.7088763 0.21255231 -0.34298113 0.82377875 -0.08142123 0.3347131 -0.13955016 -0.6158975 0.08373283 0.07717394 1.6846188 0.2730146 -0.29663718 0.082590714 0.76875806 0.2697671 -0.5881921 0.24778238 -0.3004164 0.6121319 -0.93931127 -0.18506396 0.48224384 -0.51275516 -0.6110687 1.1601598 1.2110838 0.39162037 -1.6775216 0.35586292 -0.008395335 0.40023 0.87883514 -1.623466 -0.3323417 -0.77340245 0.34895277 -0.007142931 0.13555363 0.9443881 -0.018343775 -0.29825956 0.8469191 0.37221268 -1.3715154 0.29133376 0.050644796 0.60717314 -1.2478229 -0.03175728 -0.8206148 0.9902126 -0.83134544 0.8936773 1.8605986 -0.64559627 -0.059845023 -0.46732983 -1.0192367 0.5437664 -0.22331773 0.3894134 0.13555141 1.3223461 0.36833397 0.48280448 -0.275894 0.039198898 -0.43878713 -0.31661674 -0.5280599 -0.12652072 0.18039812 1.6046853 0.059708565 1.1983945 -0.69935626 -0.2502795 0.20154217 1.1171275 0.22686519 1.0416338 0.83202654 -0.33450314 0.5078161 0.3650077 -0.7446232 0.35692888 -0.24925658 -0.26917183 0.33921626 -1.4747571 0.3262948 -0.83576787 -0.08144925 0.27299666 0.7033972 0.27703574 -1.3030485 1.5674835 0.26800677 0.41459373 0.097803466 -0.1640599 0.5231777 1.22402 -0.1380837
: 0.17445628 -0.009537289 -0.18945947 -0.3894004 0.19490057 0.4434311 -0.674691 0.6844178 0.03437431 0.47339427 -0.3036403 -0.15098664 -0.06549975 -0.26015124 0.8317446 -0.64842623 0.3526091 -0.3831451 -0.9354958 0.3278036 -0.09199564 1.104408 -0.71149373 0.9788435 -0.057662856 -0.56235015 0.89436406 0.16269927 -0.03217526 -0.46242383 0.32582164 0.25018093 0.8059951 0.30847034 0.776717 -0.085887544 -0.30820167 -0.1418331 0.78341055 0.045926355 -0.7844623 0.31735837 0.78885746 1.1763568 -0.43409577 -0.58125716 0.26594645 -0.18638825 -0.17627175 -0.38548735 0.83354783 -0.14127053 0.08470455 -0.45093453 0.34936675 -1.0345219 0.576419 -0.336641 0.11720215 -0.493475 0.34208643 -0.26234835 0.22690806 0.24826391 0.8086358 -0.15459555 0.45714757 0.900106 -0.040027574 0.06881055 -0.3508687 0.5440207 0.03237145 0.5182446 -0.5090049 -0.3008258 -0.22722986 -0.298779 0.8287845 0.3251279 0.041143954 -0.23482414 1.0165658 0.39393073 0.21053304 0.63644415 0.5611974 -0.12429004 0.38320148 0.6294155 0.33451316 0.56463575 -0.64856845 0.82837415 0.31125697 0.3373982 1.5622724 -0.8144634 0.030158931 0.5017673 0.21999128 0.22363217 -0.13206081 -0.8535513 0.40506932 -0.7317725 -0.51751626 -0.3818319 -0.17899813 -0.022569213 -0.01422698 0.14952387 -0.5941999 0.9196958 -1.0652179 -0.06446733 0.23826164 -0.4224435 0.35242233 0.45731544 -0.08768726 0.7923879 0.30300054 -0.52215785 0.59414965 -0.43867323 -1.3752589 -0.09476523 0.3180737 0.5710419 0.2324819 1.1728871 -0.7802828 -0.42120135 -0.06612986 0.7683703 0.6664413 0.15104622 -0.21578516 0.9287775 -0.36613673 0.9353253 -0.47568193 0.21233347 0.0275508 -0.3748218 0.9463232 0.13598454 0.39612728 -0.33490017 0.7966128 0.25136608 -0.063346304 0.3751838 0.3147949 -0.021828406 -0.3104491 0.43907258 0.17216727 -0.25844395 -0.17458548 -0.6908055 0.6449899 -0.23345892 0.5422213 -0.19320141 0.5167549 -1.2204902 -0.19417799 -0.4526408 0.31427452 0.30173007 -0.2933775 0.81029165 -1.3872441 0.7392768 -1.0088798 0.48371905 -0.6427398 1.1088194 -0.434384 0.54742813 0.60207814 -0.15455239 0.84267527 0.4601908 0.53232807 -0.4024832 -0.31758255 -0.108725935 -0.2932101 1.0424556 0.51887244 0.6483269 0.05774082 -0.6391523 0.5829486 -0.42668822 0.71259916 -1.0732043
+ -0.38722095 0.120525904 -0.7271317 -0.42370015 0.30392405 0.16184594 -0.3342565 0.51994884 -0.41655532 1.073021 0.3660748 -0.011708581 -0.7371134 -0.70343703 0.60491425 -0.3833444 0.5304598 -0.058358017 -0.4953172 -0.07792131 0.3666842 -0.39920664 0.013013769 0.4100061 0.3888378 -0.1410003 -0.18291016 -0.8955758 -0.6629707 -0.8703809 -0.08527782 0.68907654 0.338047 -0.36467096 0.18767893 -0.0021867598 0.29202157 -0.3839434 0.5487975 -0.1327588 -0.09869819 0.4487688 0.7109827 0.31345016 0.06376811 -0.027818985 -0.459986 -0.29281124 0.15987736 0.76979965 -0.33074525 0.16952069 -0.20142315 -0.71996295 1.3012481 -0.21209487 0.327386 -0.58098257 0.5642862 0.051163673 -0.1126496 0.407623 -0.08108614 -0.03306679 -0.4635806 -0.8067755 0.29790083 0.6434331 -0.026177788 0.81551594 0.1701374 0.9409171 0.053685896 -0.17056814 -1.6941795 -0.30052054 0.30802134 -0.74859595 0.4519322 0.21037923 -0.033502012 -0.6105358 0.89146864 0.44742277 0.6235318 -0.060229972 0.36491776 -0.91403997 0.10144766 -0.18494205 0.9737022 -0.026569588 -0.0393169 -0.007447967 -0.082081795 0.5347592 0.119374685 -0.8467813 0.5327896 -0.0091927815 0.5838036 0.39156562 0.3076715 -0.1428804 0.45841417 -0.320823 0.2031111 0.112311825 -0.34203744 0.6442476 0.25260815 0.3078923 -0.6360688 0.17628433 0.23660886 0.6618761 0.77795213 -0.0031832503 1.0688348 -0.7320475 0.04009918 0.41327477 -0.010616038 -0.52498204 -0.58479625 -0.5175427 -0.36967576 0.34629923 0.9487878 0.58129674 0.20553744 0.13561195 0.23641396 -0.7292261 -0.0039191293 0.03265503 0.8047135 0.631675 0.1942103 -0.43125892 -0.32879415 0.26866665 -0.10326896 0.365634 -0.30843484 -1.0080338 0.2658909 -0.25434124 -0.14633112 0.81789917 0.046393655 -0.0151355155 0.021573106 -0.26968458 -0.6465144 -0.20000197 0.20886324 0.4769255 0.5013276 -0.42858186 -0.4955561 -0.54552233 -0.4894889 -0.091864645 -0.016494062 0.30234203 0.34511998 0.42337018 -0.5833597 0.14595242 -0.71539366 0.1698385 -0.19314821 -0.5764494 0.3439346 0.26309046 0.82582104 -0.7815484 -0.12476216 0.7716461 -0.36360678 -0.42410684 0.9692841 0.3028455 -0.056787275 0.7815612 0.21618202 -0.4160736 -0.017246949 -0.8295749 0.64470273 -1.0365812 0.06950128 0.17146668 0.21730985 -0.61809915 0.82885885 -0.022911552 -0.4169175 -1.4532261
行 -0.2727746 -0.2129647 -0.8379658 -0.63867944 -0.5735323 -0.36404267 -0.48014104 -0.3466422 0.15325962 -0.49846977 -0.07331147 0.08676166 0.015244307 -1.2404362 -0.5712141 0.6488868 0.54183906 -0.26518026 -1.1608974 -0.33733782 -0.9074837 -0.91329247 -0.9263126 0.3631986 -0.33428407 0.12971075 0.009194493 0.5996213 -0.050262656 0.7794671 0.4767993 -0.29562363 0.027861381 -0.68340343 0.39609396 0.54665715 -0.03747091 0.4341237 0.87970394 0.399204 1.1900122 0.27281877 0.8517363 0.43463537 -1.2649218 0.37387875 -0.25690582 0.18696627 0.28519696 0.36822826 0.3189122 0.10278448 -0.48940134 -0.3597709 0.4516043 0.4956354 0.7195995 -1.3310208 0.3000629 -0.52104 1.0661793 -0.1935684 0.5067015 0.4465375 -0.7146882 0.6154935 -1.193071 -0.8797487 -0.24441385 -0.26788643 -0.74696773 -0.051761165 -0.74025846 0.70444775 -0.28292626 -0.4448967 0.5249959 0.5768267 0.010106228 0.31040275 -0.32654405 0.29401806 0.059743878 -0.13491303 -0.01984155 0.04053768 -0.2581923 0.07475909 1.1830295 0.030399326 -0.3713543 -0.104126245 -0.9211866 -1.0878692 -0.29225236 0.33710495 0.1787963 0.4675626 0.7734115 0.091058634 -0.7174553 1.0387144 0.8020264 -0.34075975 1.1831793 0.46243182 -0.7901298 -0.25720963 -0.17891869 -1.0798886 -0.22949634 0.88566685 -0.5805815 -0.17301418 0.21340175 -0.61231065 0.44941238 -0.01911438 -0.42726386 0.19656987 0.37044883 0.68373597 -0.15645732 -0.5143089 -0.5504736 0.4225614 -0.94874114 0.20361619 -0.8799662 0.39064544 -0.34377706 1.718823 0.11224816 -0.05438803 -0.123854674 1.2449636 0.24057515 0.24642406 -0.24370547 -0.91780806 0.25745425 -0.2843052 -0.043564558 -0.14351277 -1.2057045 -0.08946427 -0.2661418 0.14095725 0.33193195 0.18670574 0.37336907 0.08120879 0.46240017 -0.4366269 0.06381119 0.029960206 -0.09606799 0.97422105 0.42420533 -0.06507279 -0.3033243 0.37276146 -0.42637816 0.279173 -0.6397547 -0.17471795 -0.2774228 -0.36005193 0.15015496 -0.006505531 -0.084846415 0.921678 0.4154836 0.8069616 -0.1289107 0.036519513 0.23288237 0.24441642 -0.28249803 1.0475942 0.82496613 0.04587928 0.7841921 -0.1214149 0.92437816 0.4642637 0.62714875 0.15605439 0.59869987 -0.24510086 0.6965185 1.5045729 0.09983495 1.2179887 -0.4631188 0.22625993 -0.3426123 0.41532904 0.49685603 0.88921535
病 0.5840785 1.1481667 -0.39561382 -1.2710042 0.95894426 0.15293366 0.18248658 0.70652974 1.0591621 0.40832853 1.3785089 0.2100691 -0.2616516 0.11131298 0.032629598 0.8984092 0.3145318 -0.73691547 0.12470216 0.16217338 0.13086163 1.1524435 -0.41924244 -1.2257692 0.031334735 -0.09799583 0.5223872 0.016716344 0.256199 -1.5076457 0.1792319 0.071339816 -0.3426069 -0.38250202 0.5131282 0.27252412 0.173206 -0.047843546 1.2429947 -0.73107886 -0.4301957 -1.1449786 -0.60846376 0.55388206 1.0355226 -0.025437485 0.7148519 -1.5957484 -0.5024083 -1.1307489 -0.4545101 -0.8652141 1.5275009 -1.3958989 0.81329453 0.24076755 -0.114750735 0.81891495 0.61276984 -0.13174704 -1.2668136 -0.19068174 1.861961 -1.9314457 0.92579293 1.6324618 0.62270665 0.6748107 -0.18233575 0.660567 -0.07164338 0.014722944 0.33213934 -0.16414745 -0.7701371 0.43348143 -0.03799022 0.50438416 0.281416 0.75014496 0.68146646 -1.3278265 -0.2695893 0.15194312 0.032022536 1.3653293 -0.41732702 -0.1730851 1.2747355 0.9191824 1.0834186 -0.50293094 -0.084567554 1.269795 0.691702 -0.19631436 0.78227663 -0.3223823 -1.4861405 0.41202593 0.97186923 -0.48594287 0.42877293 0.9690013 -0.6608725 -0.19229594 -0.2539701 1.2918141 -0.07447665 -1.6189908 -0.045090303 -0.63834405 0.7557678 -0.043907017 -0.53032243 1.2533153 0.5197529 0.73759335 0.5480049 0.045249645 -1.2032255 -0.5170052 0.016598774 1.0907758 -0.3843941 0.00626148 -0.96509254 0.22571647 0.9522209 0.457443 -0.37027836 1.6751671 -0.4668979 0.07618132 -0.30987674 0.8572548 -0.62974995 0.853193 2.465252 -0.64339054 0.63461834 -1.4109218 -0.16745053 0.26286966 0.65533406 0.54729164 0.61720544 0.21638106 -0.65953577 -2.041155 0.18169561 -0.5229667 0.95324457 0.47139677 -0.34850547 0.9170461 -0.31756613 -0.7063657 0.22090667 0.36968467 0.5432169 -0.1905187 1.8768266 0.085886754 -0.25775167 0.9180501 0.9208944 -0.94920605 0.6487777 -0.877165 0.70804614 -0.119303696 -0.004242439 0.8044271 -0.47339472 0.16556087 -0.3284723 0.83017284 0.045199424 -0.55189276 0.14817627 1.5936213 0.3655409 -0.1758429 -0.08489572 0.4554519 0.5686521 -0.043030545 0.7023866 -0.6691154 -1.0502552 -0.59840727 -0.80137324 0.9572033 -1.4360638 1.2851444 0.39778906 -0.37555513 -0.2059271 -0.44113353
6 -0.13856882 0.25973982 -0.3437533 -0.0824748 -0.13946433 -0.13607737 -0.004343861 -0.1794465 0.1545547 1.5321907 -0.21297002 -0.020247132 -0.16244 -0.16222715 0.08150067 0.2039984 -0.31275386 0.5286038 0.5447974 0.6886092 -0.17189188 -0.30912367 0.5438397 -0.1151581 -0.1934917 0.104783066 0.038572527 0.04165368 -0.36072376 -0.31817675 0.42308316 -0.04116545 -0.24382773 -0.2732716 0.27096903 0.47693494 0.4573113 -0.17910057 0.58110136 -0.11412775 -0.85370886 0.0101971645 1.0136333 0.61369383 0.070205845 0.76443785 -0.034897737 -0.3516004 -0.37024808 0.50696737 0.24737348 -0.23720965 -0.37791017 -0.14975064 0.0016803691 0.44919363 0.3721218 0.116693 0.24498726 0.19913912 0.044591885 0.0155389 -0.28004158 -0.26546565 0.6609674 0.08067167 0.8234585 -0.23023446 -0.048683792 0.2999077 -0.20237397 0.21476199 -0.5698347 -0.25905615 0.14485128 0.5978403 0.978048 -0.051056482 -0.24149132 0.78731555 -0.0969015 -0.07089252 -0.44181794 0.4601978 0.038978986 0.16994156 -0.47678813 0.20583001 -0.022660559 0.10958851 0.33231106 -0.63454354 -0.27242827 0.16201362 0.07172664 -0.73958206 -1.0841762 -0.52863 -0.27052116 0.1109261 -0.5743141 -0.3523693 0.31333643 0.3959992 0.013859256 0.7531699 0.062855065 -0.42318943 0.036131434 -0.21964753 0.28414634 0.47320893 -0.15220726 -0.40277946 -0.22282773 0.8012456 0.614008 0.08104089 0.16130404 0.15278661 0.5457809 -0.13741921 -0.5812143 0.4920811 0.9970935 -0.34883454 0.23297353 0.20169 0.04776347 -0.03421479 0.2800123 0.30535045 0.57433766 0.17026258 -0.57960004 0.5072917 0.2676019 0.017026696 0.5508801 0.4524364 0.21561109 -0.3338303 0.7406425 -0.47025302 0.006441978 0.17689222 -0.024144389 0.029969169 -0.16200118 0.28139246 0.37489986 0.44842362 0.357984 0.56340826 0.08551578 -0.31109044 0.40642527 0.10326941 0.19148277 -0.45389643 -0.3669007 0.31463122 -0.29630995 0.31592876 -0.5621669 0.31265646 0.4026343 -0.07477203 -0.8523057 0.013648757 -0.57697344 -0.8217816 0.00024164356 0.34948927 -0.32275826 -0.41660583 0.029128643 0.42862883 0.13770323 0.04760516 0.5869295 -0.39385244 -0.2663353 -0.03447672 -0.026554681 0.16075042 0.38859737 0.3035588 -0.020381477 -0.66621226 -0.06221903 0.89562374 -0.04307484 0.32373694 0.45161834 -0.29950163 -0.5351011 -0.9393482 1.2216656 -0.28816488
c 0.020963257 -0.0049045607 -0.63906825 0.8627952 -0.06372693 0.66522896 -0.02788485 -0.2982929 0.60853463 -0.024083512 0.16193207 -0.24458294 0.002849527 -0.42177683 0.24974515 -0.4050771 -1.0621684 0.62310076 0.85247403 1.2840563 0.07730326 0.9584486 0.46512517 0.18584178 0.49654436 0.62671375 -0.6922991 1.0502486 -1.0911174 0.015814163 0.49058124 0.26060417 0.5546386 -0.2892724 0.61480075 -0.037911143 0.38517335 0.34829992 0.0005860132 0.4049516 -0.00037471546 0.18755437 0.83947325 1.8328731 -0.6290687 0.6876423 0.13599424 -0.85214347 0.5379922 0.3032704 0.70107216 0.45273146 -0.13676727 -0.26632944 0.44886842 -0.06706446 0.087785326 -0.03510119 0.14057758 0.2524236 0.5166187 0.2812309 -0.6428758 0.2496019 1.4090229 -0.572437 0.3740943 1.1661676 -0.06384535 0.61758745 0.19405073 0.4490863 0.23596041 -0.1235916 -0.4425896 0.32095855 -0.34759423 -0.32129508 1.0020018 0.1125633 -0.7872541 -0.23439932 0.42444825 -0.35794657 -0.027732456 -0.23187917 -0.85368407 -0.5590793 0.17049226 0.8597253 0.22914784 -0.21078098 -1.1308477 0.3543619 0.82054913 -0.5831567 0.24659128 -0.2728175 -0.1583832 1.0212486 0.39206505 -0.71668845 0.3427926 -0.7133739 -0.347909 0.063398615 -0.10789269 0.17196591 0.82881224 0.7266009 0.9969497 0.8336781 -0.20060517 0.24225906 -1.1392691 -0.38341123 0.8878785 -0.05174945 0.089107014 -1.1184705 -0.3239265 0.8042248 1.0314494 1.1489003 1.3210241 -0.55662113 -0.22283994 0.3636421 0.5278655 -0.15371287 0.46592095 0.16480136 -0.21932307 -0.11140238 0.11165136 1.1213539 -0.26377404 0.14622203 0.85393375 0.009904049 -0.9769369 0.31836736 -0.7398685 0.69203794 0.29460055 -0.50386614 0.116139434 -0.30849713 0.55616915 0.11226572 0.34695783 1.217643 -0.03506626 0.65094334 -0.78109217 0.112594284 -0.16018528 0.041229874 0.009453214 -0.5885608 0.48834795 0.92242044 1.4171424 0.62119806 0.02039647 -0.07209693 0.06246285 -0.74253905 0.29931593 -1.165102 -0.7000268 1.4252123 -0.5489199 0.32705563 0.43609527 -0.36342582 -0.9336815 0.7856231 -0.60274595 -0.23242156 -0.117552824 -0.37218753 0.5220391 -0.26629758 -0.75742644 -0.3634418 0.57015896 0.06515278 -0.002391616 -0.58123827 0.6947256 -0.3841787 -0.4348351 -0.070193134 -0.83816475 -0.39680666 -0.012943188 -0.4243193 0.41146922 -0.22679508
见 -1.0075082 1.5899836 -0.25056684 0.009207216 1.9416717 -0.10870372 1.0904123 0.11930015 -1.8168753 -0.4685665 0.41406673 0.90237355 0.6466171 -1.2898597 0.7932745 0.87059253 0.9581812 1.2656592 -0.27759376 0.7944188 0.35910657 -0.28148746 0.5141478 0.25025252 -0.3264867 0.6283295 -1.2563807 0.54794604 -0.0792226 0.26820683 -0.34197068 -0.8041371 0.13366903 -0.98849493 -0.39930782 -0.06353276 0.5864802 -0.02721864 -0.51762813 1.1090186 1.7175419 2.2686918 -0.82362795 -0.5390952 -1.0085733 -0.7342507 1.4530481 0.45257714 -0.028879168 -0.50237423 0.041752376 0.6669363 0.112980306 -0.9731613 0.55258286 0.5250612 -0.48809275 -0.008767654 0.25432658 0.7030742 0.7396925 -0.48807758 -0.5943442 0.9740554 -0.41856787 -0.11669776 0.3710401 -0.35999078 -0.4745852 1.4448777 1.065455 0.3616548 0.5699822 0.69390124 -1.2437719 -1.1773943 1.01828 0.658991 -1.0291821 -0.47659865 -0.8896529 -0.47569343 0.19458874 0.09488491 -0.68680924 -0.086871706 0.76576173 -1.0905113 -0.37205213 -1.4923459 0.17396125 0.40451673 0.32082358 1.0270299 0.22831915 -0.87581706 -0.035853885 0.57223696 0.397647 -1.6778872 0.67246103 -0.1778986 0.6934439 0.33300108 -0.28081283 1.1044627 0.0012444534 0.07448818 0.9145237 0.80005133 -0.8119832 0.3159301 0.72301614 0.02055001 1.0208313 0.09148103 0.12113904 -1.3246696 -0.374012 0.8369863 -0.71950394 0.058551464 1.8485879 -0.9386914 0.31194538 -0.9681449 0.008454049 -0.31444755 1.1970098 -1.3727912 1.330027 1.2326849 -0.85623527 -1.0135988 0.6285448 0.038187467 0.8544228 -0.000567887 -0.78365916 0.44078493 0.81379455 0.977459 0.45154285 -0.76694846 -1.2280449 1.106188 0.5052309 1.0028183 -1.6014316 -0.7549412 -0.21809663 1.6124783 -0.9111585 -1.5400932 0.48247123 -0.24607922 -0.4141479 -0.37104633 -1.2836403 1.4310532 0.79209477 -1.0374116 0.6700428 -0.989643 -0.267877 0.13195565 1.4009755 -0.43931013 -0.14638068 -0.51002383 -0.28967237 0.95313776 -2.021818 -0.3031887 1.4594971 -0.37627202 0.42435896 0.42881685 -0.3321232 -0.2273203 0.15655959 -0.37736037 -0.30763766 1.1281778 0.7830681 -0.44058913 0.25716436 -0.78160846 0.187989 -0.67183673 1.6014955 0.03398296 -0.48263454 0.62015814 0.14267273 1.062387 -0.99014187 0.27121302 0.76202303 -0.2758915
大 -0.45360512 -0.5269843 -0.5248422 -0.83886987 0.07257028 -0.2708814 1.1903071 -0.5736252 -0.08736831 -0.34708348 -1.5123258 -0.86461365 0.9161247 0.42484728 -0.13153581 -0.516772 0.060803823 0.6024105 -0.34631544 0.5246298 -0.113482244 0.19380197 0.95446414 -0.41112572 0.20283982 1.2024156 0.32068145 0.30380756 0.09988547 0.25486353 -0.36478215 -0.18148968 -0.0083010355 -0.5730918 -0.04522087 0.58318615 -0.49844632 -0.583678 -0.5593187 -0.2687512 0.49611136 0.6040551 0.4664746 1.2532871 -1.0958421 0.30265838 0.76322204 0.5491517 0.21042891 -0.05408832 -0.006066724 0.33532867 -0.7205431 0.20183897 -0.14975876 -0.27036166 0.04137372 0.18395123 0.12757264 0.24102055 1.199536 0.81899714 -0.8463198 -0.48982432 0.4098039 -0.5310174 -0.55347335 0.81632787 0.04835162 0.21188879 -0.2932323 0.28402406 -0.7228267 0.9474581 -0.7776763 1.3523713 -0.03112785 0.25759026 0.897229 0.07111746 -0.83679926 0.025003815 -0.4804986 0.5977362 -0.4213837 0.24014884 -0.07945869 0.42475083 1.1178116 0.09709026 -0.013671782 0.5245814 -0.018528845 0.21521296 1.774503 -0.11605733 -0.8592164 0.4539839 -0.18609056 -0.7887211 0.023902997 0.45303535 1.1862683 0.78676885 0.38419878 -0.44674903 1.7039877 -0.71455276 0.43304795 -0.09218455 -0.13241394 -0.28739145 0.7122234 0.17860053 0.08224665 -0.28731215 0.42141792 -0.7896038 0.5036838 -0.73362154 0.46452683 0.8727455 -0.06384651 0.7099678 0.6353381 -0.6109583 -0.2779217 1.0118665 0.6758032 0.0020504384 0.5471184 -0.17924207 0.4850985 -0.4913892 0.66573364 -0.31705046 0.3999847 0.2444046 -0.22644734 0.083683625 -0.2581094 -0.34277138 0.68596864 0.19981672 -0.36597046 0.4741085 0.7370281 0.25710347 0.15329462 0.5655288 0.5569752 0.94412977 -0.4445311 -0.007314687 0.5605907 0.38375375 -0.8435759 0.23863153 0.1612993 -0.62422276 0.7305023 0.8259441 -0.14207551 -0.14335713 -0.4072563 -0.1897872 -0.50289214 -0.9923891 0.3952412 0.7094725 0.4861182 1.3984218 0.107340306 -0.6653592 0.30002406 -0.049464006 0.19580598 0.6801445 -0.35436347 0.013097435 0.783254 1.1200914 -0.6662357 0.18243343 -0.063625105 -1.0062356 0.61106944 0.7510027 0.11849762 1.3295349 0.27174446 -0.13796294 0.3432262 -0.7246831 -0.06546411 0.06607201 0.6960571 -0.12244994 -0.74148875 -0.5068947
i 0.94883597 0.41480812 -1.1887602 1.5040457 -0.14776765 -0.022486217 -1.09503 0.45376846 -0.19476987 1.4044074 -1.3168532 0.657747 -0.8907047 0.28271598 0.19254802 0.20978574 0.45333707 0.3047787 0.350657 0.6668762 0.4573863 0.13207282 0.67917717 -0.19732784 -0.21476504 0.15443815 -1.2467912 -0.041048985 -0.4109907 -0.13480325 1.1538107 -0.5719535 1.0797887 -0.48776883 0.30318406 -0.0832481 0.42621982 -0.6479911 0.069917 0.479829 -0.59156394 1.1328689 0.9178139 0.52321607 -0.10796879 0.7444267 -0.8841399 -0.48686263 -0.94866484 0.5419346 -0.038912036 -0.22638173 -0.3053416 -0.8671586 0.017004617 -0.6381564 -0.7495997 -1.1021396 0.012239037 0.318424 0.045746226 0.79505587 -0.976761 -0.00645607 0.70866656 -1.3386874 -0.6712651 0.10502105 -0.24394493 -0.4109619 0.111972615 1.1337632 0.050341677 -0.39031532 -0.2769779 -0.44209984 -0.9696139 -0.99710256 0.6241144 0.5595314 -1.3477284 0.2610555 -1.2619237 -0.08231361 0.7633929 -0.685374 1.1222256 -0.49797446 0.027705515 -0.65997934 -0.03497311 -0.41218883 -0.8700952 0.54912007 -0.8860424 0.18963201 0.62304306 -0.48621795 -0.73289216 0.37062386 0.19096628 -0.4196601 -0.44122934 -0.24246825 0.15643059 -0.50748587 -1.3280257 -0.7398725 -0.6012195 -0.65136486 1.5223618 0.8551525 -2.0385864 -0.4030115 0.48773694 0.39007592 -0.71694934 -0.46714687 0.54352516 -0.11580032 -1.454667 0.3808109 -0.30905813 -0.20926245 -0.8519645 1.3849697 -0.3194409 -0.9756555 0.5672538 0.59116095 -1.2614125 -0.68254566 -0.4233306 -0.23375385 0.61968744 0.7021384 -0.17956828 -0.8009096 -0.2344604 -0.87463975 0.21523009 0.5494723 0.9657044 -1.0224845 -0.7746701 -1.1433097 -0.5397113 0.49912617 -0.30415428 0.6815307 0.2534007 -0.1960645 0.30301645 1.3079166 -1.0690569 -0.2952101 -0.607327 0.93849707 -0.44939056 -0.78525555 0.03972814 0.63164866 0.19326562 0.3065845 0.973029 0.26560777 0.41700682 -0.055992085 -0.16458313 -0.22825739 -1.7303393 0.62131065 -0.41002673 -0.22184603 -1.0402292 0.13520697 0.116879545 -0.47271758 0.016748 -0.13714856 0.78240144 -0.06280767 1.4261471 -1.0543386 -0.77867633 0.48791903 0.6433447 -0.36598703 0.6236602 -0.69330966 -0.73236763 -0.8513253 0.6103978 1.5798514 0.6701035 -0.7402976 1.2860577 -0.73697716 0.8545917 0.24243917
诊 -0.10847428 0.8327585 0.74120706 0.04563281 -1.204973 -0.43244675 -0.9879527 -1.296441 -0.07774263 -1.1953189 0.18787003 0.7037872 0.109931216 0.19652817 0.5285289 -0.03471317 0.8881504 -1.2023262 0.043059092 0.9522285 -0.5723094 1.1608948 -1.3871282 -0.56013536 1.1908576 0.06402867 -0.11293625 -0.0739411 -0.53085506 -0.5747769 1.4283372 -0.28850955 -0.08780909 -1.0199949 1.4428598 0.26848876 -0.43480334 0.59086 0.63220567 0.20711996 0.4327003 0.5124999 -0.3733987 -0.4899479 -0.45190167 -0.6007079 0.42496818 0.29717013 0.2966822 -0.7091774 -0.4561796 0.3224945 0.40582716 0.59664446 -0.9356046 -0.098663315 0.71679246 -1.2350273 -0.9714752 -0.5718353 1.101318 -1.176064 0.25891942 0.12863289 1.0239358 -1.3883085 1.1782703 0.023841104 1.4096011 1.3157641 -0.33172622 -0.41626328 -0.6566104 0.77626646 1.1495199 -1.0487616 -1.1404557 0.480496 0.39988378 -0.294173 0.46481764 1.3702037 -0.35610014 0.042685736 -1.0884334 1.4796546 0.6611813 1.2814572 -1.3346808 -0.5305698 0.5433718 0.22199695 0.05014749 0.48122826 -0.069695614 0.21808864 0.49783972 -0.562109 0.9769935 0.7497985 0.09244665 -1.3334193 -1.1111431 0.12789956 -0.64651877 0.9483475 -1.2491522 0.91681373 -0.59902894 -0.6127885 -0.06947219 0.23884313 -0.7166583 -0.9849581 0.2453736 -0.11153426 -1.4605448 0.21686505 -1.1613388 -0.12295907 1.2169884 0.8988911 0.085617825 -0.44719425 -0.97684205 0.6042455 0.67548877 -1.173676 -1.2061557 1.0760777 -1.2722887 2.2891805 0.890916 -0.50384265 -0.3295919 1.7593353 -1.407003 -0.2292334 0.469227 -0.84475994 -0.6533522 0.7657865 0.36813766 -0.36587992 0.22280648 0.27974063 0.13205509 1.8815445 -0.041044116 -0.54346406 1.1806103 -0.4922304 1.5582386 -0.08232732 0.007637463 0.19946255 0.24201518 0.14672562 0.6190988 0.18768287 0.33235353 0.3967634 1.8260797 -0.8088302 -0.2024172 0.8090039 0.6888618 -0.6508482 0.62433904 0.50866264 0.08374118 0.5447769 0.20760725 0.91555774 -0.0209727 -0.97669 1.0733842 0.16853786 -0.6927748 0.067045994 1.6463406 0.72282404 0.52680844 0.40991417 -0.96304876 1.2423863 -0.18670635 -0.1811304 -0.062237963 -0.79086334 0.4423513 1.1682559 0.39715946 1.3174886 0.059862323 -0.3571249 -0.49532005 -0.6149076 0.65360385 0.62206113
于 0.19411269 -0.54509413 -1.3720938 0.64349437 -0.37410644 0.919008 0.05467604 -0.36229998 0.26036265 -0.12535861 0.13615648 0.3600345 0.24708661 -0.28570864 -0.32291728 0.56287974 0.54141015 -0.12458329 -0.12588286 0.38346475 -0.054781366 -1.322983 -0.70042396 0.41649032 0.041826382 0.2611348 0.03932804 -0.22310542 -0.13530637 -0.43501997 0.028234545 -0.5679881 -0.010298108 -0.73098755 0.4372297 0.5649315 -0.28327978 0.73090816 0.63731384 1.376472 0.89135695 -0.18644197 0.12016529 0.7175969 -0.7782624 0.77640456 0.9863006 -0.07670968 0.3310597 0.54201263 0.008637953 -0.15854691 -0.27473205 -0.527803 -0.2429197 -0.686455 0.77251744 -1.0393533 -0.3960555 -0.4574485 1.2431316 -0.48264614 -0.14915292 0.2999125 1.0206457 0.30150446 -0.20377332 -1.0849608 0.4543926 -0.59454584 -0.8926061 0.36871842 -0.8590176 0.17118688 0.5585738 -0.8316449 0.13059567 0.07589149 0.07358731 0.4576151 0.54524297 1.4506695 0.5519186 0.8228422 -0.2571707 -0.41645604 -1.1351717 0.35763735 -0.39245957 -1.019661 0.5147166 -0.41625708 0.21220522 -0.6019583 -0.9711385 0.4619836 -0.6481503 -0.6454293 0.49338078 0.050307475 -0.32655147 1.2882619 -0.6802507 -0.022121867 -0.16457547 0.11848067 -1.0780001 -1.0598099 -0.28204727 -0.43690768 0.052797876 0.59912133 0.5997674 0.20457792 -0.05658546 0.6932685 0.45046502 1.0461136 0.9977038 0.22934139 0.7996082 -0.60290974 0.4751322 0.71453935 -0.47457042 0.17788477 0.16282105 -1.0572346 0.346672 0.6609672 -0.17296891 1.5849302 0.74135375 -0.7266593 -1.5594376 0.6987777 0.1430299 -0.93899816 0.5354591 -1.2919273 -0.011166172 -0.30445328 0.9782147 0.6951683 -0.118295364 0.23594043 -0.8203008 0.9601056 -0.42054543 -0.21440943 0.93026334 -0.4232349 0.10480253 0.26070207 0.89019895 0.96274537 -0.2578914 1.3597386 0.8797332 -0.4380099 0.14002147 0.99637026 -0.36181712 -0.28125703 -0.39325115 -0.47410953 0.19293399 0.2349397 0.07769191 -0.49622414 -0.7329961 0.3103944 0.0061659426 0.35867816 -0.09006877 -0.30987817 0.8839697 1.7473162 0.1782638 0.5194492 0.55523133 0.87978834 0.6832141 0.116607234 -0.3515262 0.5253023 -0.195163 -1.0369475 0.29899648 0.13161482 1.80315 0.96709096 0.6602195 0.2307034 -0.0029194038 0.36395475 -0.44526896 0.52668285 0.10096833 0.19926548
治 -0.18364722 0.17767167 0.47962072 1.2163081 -0.45749137 0.59684134 0.68187267 0.63297504 -0.98864645 -0.69201344 1.0668997 0.039241254 1.4463773 -1.0959024 -0.5816052 0.51451135 -0.8087149 0.83883846 -0.47038272 -1.3405223 0.83177745 0.53631467 0.12215402 0.012112094 0.14696296 -0.11263772 -0.10663756 0.41184908 0.36377013 0.7785685 0.6565846 -0.03333476 -0.5517356 0.14468497 -0.65689796 0.53875786 0.59969354 0.41808787 1.3218247 0.116306156 -0.50688547 0.8953651 -1.6861928 0.8738026 0.027866676 0.69812065 -0.4086805 -0.42703015 0.8205273 0.07087675 0.5771048 0.7072421 -0.4471145 -1.8176067 0.8135369 0.078816846 -0.6326063 -0.17344831 -0.37603575 -0.15325604 -1.6112324 -1.349239 0.7345488 0.3449905 0.38390523 0.86362743 -0.42059562 -0.5626495 0.27685228 -0.36188522 0.6003568 0.27981567 0.2296207 -0.86844355 -0.2853998 -0.20590727 -0.21512777 0.7228756 -0.80978423 1.2029257 -0.5023375 1.2083071 -0.6014794 -1.0168655 1.4085115 0.27821377 -0.93582606 0.04286426 1.5181512 0.01744957 -0.10642245 -0.86338186 0.0065104747 -0.91734743 -0.7673215 -0.2875018 0.54539406 -0.39378548 0.86007935 -0.28080508 1.1243855 1.5149732 0.9865621 -0.4742153 0.71055126 -0.303108 -0.9910685 -0.84627986 0.36069882 -0.11917479 0.28015575 0.43491003 1.0793399 0.75001913 -0.26298335 -0.5929912 -1.3072588 0.069126464 1.0183576 1.2556247 1.2073728 -2.4695694 -0.45686197 0.7163214 0.16268544 1.1199443 0.11099132 -1.100358 -0.19251771 -0.09548385 -0.75403965 0.37730312 0.12641639 1.0806445 0.34060267 0.26477247 0.13126366 0.012737668 -1.4607692 -0.49511448 -0.4804882 0.3058613 0.66331506 0.10068981 -0.63338304 -0.13048862 -0.17536564 0.48083594 0.38206613 0.17740507 -0.4119378 -1.0087283 0.603786 -0.31168678 0.12066701 0.47087526 -0.24950832 0.8340928 0.13288568 0.3698112 -0.9751725 -0.8505379 -0.1165127 0.051624704 0.436569 1.128356 0.16626771 0.57077366 -0.6977338 0.5817795 0.33601972 0.432847 0.31111124 0.8882126 -0.030394914 -0.22920978 -0.10215114 0.97100383 -0.6126213 -0.38599148 0.13836229 0.3770202 0.049702886 0.43663853 0.32446995 1.4465796 -0.48959306 -1.1690413 -0.24077195 -0.89351475 -0.2631589 -0.03579764 -0.9596675 -0.552489 -0.42678687 0.4071591 -0.63656974 1.422261 -0.4633714 0.52382183
胃 -0.74097514 0.78285843 0.7542988 -0.27352992 0.87139946 0.84820414 1.5415324 -0.22277963 -0.43342918 -0.45523998 0.22428548 0.73644537 0.3013183 -0.6589817 -0.8721969 -0.6464544 -0.31941435 0.77206975 -0.4190188 0.90826666 0.99803317 0.4670928 -0.08572312 0.0049947575 0.13205482 1.2067596 0.6664168 -0.32074377 -0.4070781 -0.1348673 0.41285023 -0.06551944 -0.19979885 0.0047312076 -0.36510733 0.642829 0.77058566 -0.15355612 0.7764615 0.20979822 1.3043032 1.0166519 -1.1834682 0.105118126 0.0015113067 -1.9219868 0.0013697016 -0.7786807 -1.0861056 0.45280787 -0.11296034 0.086851805 0.31237933 0.049347404 -0.91987646 0.26464617 1.2352017 -0.34508672 -0.21431804 -0.79429245 -0.11707354 -1.0317302 0.8424795 -0.040350027 0.17883404 -0.8094715 -0.9485122 -0.28275636 0.045282107 -0.99535245 0.15026179 0.2898826 -0.73660374 0.23569484 0.12940647 0.042310257 -0.9601709 0.78118336 0.5339547 -1.2846375 1.0333678 0.46834832 -0.15934688 -1.2193625 -0.7709889 0.88472664 0.11622143 -0.16082603 0.45243818 -0.19649722 -0.79100895 0.9967758 0.4489621 -0.15500979 -0.40206918 -1.0426979 0.983769 -0.9563839 0.39491913 -0.53998655 -1.0820365 -0.7451039 0.27205226 0.95292854 -1.1012268 1.0998983 -0.32736143 0.47397384 -0.057583023 -0.055778842 -1.7415613 0.25804707 0.81375515 -0.6588168 -0.71115404 -0.7649655 0.89059925 -0.79480946 -1.0197716 0.21382284 -0.3203359 0.30711436 -0.1288948 0.5271167 0.6752148 0.21082278 0.14193012 -1.6801397 0.22950064 1.349796 -0.3856822 -0.29622975 0.596015 0.37568 0.26184574 0.5027123 1.3991457 0.23220804 -1.3285117 0.72956836 -0.21336155 1.2601925 -0.17608221 -0.65728515 0.017183738 -0.16219513 -0.24150644 1.2331415 0.55073625 -0.04101348 -0.26894933 1.1392825 -0.34968248 2.032451 -1.0961114 -0.12208142 0.59372634 0.02129212 0.30442598 -1.1155432 0.5127474 -0.65572184 0.18997559 -0.46350726 0.10891054 -0.07300748 0.78956354 -0.50089717 -0.61988884 -0.25719526 0.63488585 -1.1806296 -0.45463634 1.889245 0.8228074 0.20167708 -0.58829206 0.26772702 -0.42827374 -0.24371627 -0.62261015 0.11749455 0.54471654 0.76103795 0.6173775 1.3827392 -0.14804746 0.13407306 -0.45084456 -0.31438288 0.34087294 -0.17261578 -1.2583352 -0.26987574 -0.36184767 0.3417929 -0.25923914 -1.2335112 -0.26940426 0.43620336
/ 0.637651 -0.7899505 0.88620245 0.2725599 -0.19085903 -0.25883403 0.30986196 -0.49418145 -0.5881016 1.0318391 -1.298355 -0.7116554 -0.94508606 -0.50716645 0.238638 -0.7867403 -0.5097121 -0.6179896 -0.4417925 1.1916409 0.53767866 1.351131 -0.66210955 0.8965077 -0.11691215 0.18694358 0.44839868 -0.8280093 -0.4954652 1.0706173 -0.48793808 0.0053419047 0.88275987 0.509579 0.014682288 -0.5109085 -0.3785374 0.94276005 0.20583612 0.77016443 -1.0478004 0.4563262 1.2761565 -0.020950258 -0.6669686 0.40279105 1.1732969 0.17075142 -0.05340519 -0.3607122 0.22090027 -0.47886184 -0.22197396 -0.46312866 -1.0237 -0.051410276 -0.031698894 -0.33671287 -0.23294751 -0.23710623 -0.6034099 -0.88629913 -0.8983223 -0.68969524 -0.43709645 1.9434025 0.2300898 -0.84891194 -1.4081289 -0.3805595 0.29522172 0.3320027 -0.6295073 -0.6360485 -0.14739458 0.17909427 0.4111803 0.5462738 0.4436337 0.24673398 0.014919118 0.29689032 -0.5347033 0.71911466 -0.6513488 -0.41289288 -0.14287995 -1.008268 -0.017164517 -1.4808848 0.5662797 -0.21761326 -0.32232767 -0.06312421 0.28622353 0.117157154 -0.65945125 -0.064308606 0.7713372 -0.36563006 -0.6308708 1.3243854 0.7332005 0.006376182 0.8902743 0.95460963 -0.3278221 -0.25615627 0.73777044 1.2755266 1.1503416 0.5303783 -1.1239036 -0.14107597 1.2813222 0.1779839 0.7258887 -0.49508023 -0.3241479 -1.0740691 -0.16906479 0.523722 0.23283286 -0.2926122 0.7387061 -0.11446915 0.7702505 -1.2694403 -0.5114623 0.087246865 0.033182666 0.24441358 0.8843259 -1.372621 0.23800942 -0.076454096 0.7730881 0.15750368 -1.031078 1.33212 -0.031437904 -0.050789792 0.72121984 -0.580947 0.13045418 1.7582661 -0.055979546 -0.16267084 0.38912615 0.7293355 0.8629469 0.15444694 -0.5200803 -0.5910589 1.0685728 -0.11282865 0.3003198 -0.22171392 1.8158797 -0.36652926 0.40523484 0.64202654 -0.13647749 -0.4215176 0.16917346 -1.4649578 0.1636054 0.16790283 -1.0440711 1.4774835 -1.113698 -0.7813391 0.8788862 0.4392724 0.73178 -0.0971321 -0.48138595 -0.3120153 0.24738759 -0.6149104 -0.2062703 0.03210412 -1.0228422 0.20867644 -0.66592234 0.7018066 1.1019919 -0.09208454 -0.85522914 -0.27002072 0.34076992 0.99266976 0.4053807 -0.003907514 1.2651321 -1.3293678 0.19252403 -0.13617449 0.3679042 -1.1277137
性 0.22449988 0.0053952504 3.7023296e-05 -0.95133686 -0.7842606 -0.14028978 0.09417806 -0.27882755 0.12891395 -0.05759002 0.2099423 -2.0886104 0.5129897 0.8121288 -0.36034095 -0.23742624 0.023755983 -0.07375871 -0.6444457 -0.26058552 0.8313596 -0.051073395 0.2290653 0.6024356 -0.28006336 0.5780587 0.4564149 -0.1126752 -0.26045442 -0.9651897 -0.3888845 -0.30683124 0.42529836 2.4740026 0.03364806 0.36934257 0.28954005 -1.1905489 0.20734265 0.15235372 0.36754018 -1.7682691 0.78710103 -0.2161197 -0.5230858 -0.525687 -1.418489 0.7477034 -0.77105 -0.4102261 0.09883459 1.7883054 0.49360985 0.51600516 0.57896274 -0.12761684 0.4772464 1.2071526 0.8994676 0.34260386 -0.41430467 0.46745688 -0.675708 -0.20739473 -0.45513278 0.42991167 -1.2226033 -0.28262624 -0.09620644 -0.6094741 0.27377197 -0.4877536 -0.42603043 -0.31200525 0.87253976 -0.23658572 -0.3288421 0.116453744 0.35506722 0.13230418 1.397127 -0.1017999 0.32279986 -0.48940617 0.21839379 0.46441692 -0.10944508 -0.18526907 0.58244896 -0.8269699 -0.51510376 0.52138406 0.51438403 0.44176435 -1.0094821 -0.47575992 0.7539925 -1.1837165 0.28914425 0.19704992 -0.5810658 -0.22284363 -0.7616755 0.3747724 0.013956905 -0.5997847 -0.72968566 -1.5295473 0.37489808 0.9550114 -0.5504459 0.17938235 -1.1221815 -0.39825702 0.16975439 0.30815536 0.16008805 -0.14813878 0.31333113 0.91529745 -1.0504305 0.21161856 -0.8655969 0.0046475884 1.0857091 -0.42820147 0.37567762 0.41803986 0.87436473 0.6808145 -0.6260519 -0.9123479 -0.8754246 -1.4611397 -0.23117636 0.26673412 0.7391499 -0.18900008 -1.6311427 -1.1778295 0.15470956 -0.23422264 1.3011016 -0.6196278 -0.045579154 1.1315736 -0.77289927 0.21614544 0.3905845 -1.0062816 -0.46315634 -0.29399335 0.91054666 -0.019492758 0.5368578 0.22522683 -1.0362079 -0.51545256 -0.012233838 -0.8139451 0.9311799 -1.3410125 -0.6523705 -1.0840446 0.28162146 0.32206324 0.8585856 1.3441556 -1.3778793 -0.020218162 0.32546782 -1.6229659 0.9295676 0.51512194 -0.10231162 1.2057757 0.07457309 -0.5236526 0.35857585 -0.6718883 -2.2445343 1.1542826 -0.18639863 1.4099901 0.636402 -0.9633185 -1.0832098 -0.7870624 0.612772 -0.46726614 1.389938 -0.18562613 -0.77463907 -0.8949081 -0.93379366 0.011118245 0.0041879746 -0.77271694 -0.4595598 0.73628426
前 -0.022354243 0.14707989 -1.8490144 -0.7461978 0.0894281 0.48598984 0.65254605 0.92184883 0.2980834 0.6044819 0.41921356 1.3401527 0.12383144 0.20198596 1.0724853 -1.3018086 -1.0265983 -0.89344054 0.4834078 0.89603966 -0.059001192 -0.32454854 -0.7070031 -0.7798454 -0.42453277 0.73468614 0.034103055 -0.07273264 -0.8522461 -0.86796373 0.3615752 0.7122844 -0.81330186 -1.4563948 0.053928494 0.5984039 0.01121785 0.50792515 -1.1900141 -0.15043885 -1.7074753 0.022980722 -0.37461236 -0.17888586 -0.5078767 0.92390746 0.66524273 -1.2397456 0.20390639 1.1158487 -1.0747849 0.3689563 -0.30132413 -1.4382513 -0.50015354 -1.0520667 0.6090253 0.017816296 -1.1370103 0.3254656 1.6554875 0.14782858 0.46136048 -1.0904305 0.03540481 -1.2975837 -0.805984 -1.1687753 1.0719848 -0.2362069 -0.3728925 -0.73936576 -0.80945754 -0.95399207 1.3535763 -0.16529287 0.9325215 0.82631475 0.12985466 -1.0272169 0.23934054 -0.7372834 0.6037213 1.1505814 -0.73144317 -0.015848441 -0.3960226 0.94647837 1.1127603 -0.9081911 0.04591291 -1.1612959 0.07294943 -1.4565644 -1.3482738 0.020564307 -0.9648038 -0.9730722 -0.6378512 -1.0063992 -0.9664527 0.720557 -0.09333533 0.41257924 -0.70646304 -0.8303805 1.4515896 -0.101407 0.8136742 -0.5281651 -0.20875889 -0.40393186 0.22952586 -0.1480875 -0.0041488977 0.9655441 1.8130108 0.59022355 1.2056313 0.13352983 0.23523432 0.18917294 1.1273593 0.4605377 -1.3758804 -0.751332 0.11860792 0.52911776 0.70789176 0.28850165 -0.8796005 -1.4032526 1.3305473 0.2512011 -0.6233464 -0.21771468 -0.029897379 -1.4277849 -0.67882144 0.63925594 0.9841293 -1.4690106 0.5181926 -0.9681445 1.0795677 0.3608508 0.90325344 -0.29356351 -0.26389772 0.30780834 0.4103727 1.1283326 0.09599063 -1.004396 -0.64496 -0.3110656 0.6028383 0.67257315 -0.5496567 -0.41987354 -0.6864472 -1.0500114 0.17015646 -0.33009237 -0.6785097 -0.6228188 0.5675128 0.00712935 -0.073276095 -0.10086891 -0.31950983 0.3248616 0.41697448 -0.8320565 0.031279944 0.37060332 1.0118552 -0.41841182 0.5337578 0.10461006 0.11734026 0.95323545 0.27832764 0.3860859 -0.6057223 0.23679322 -0.3083387 0.49698395 -0.2561685 -0.09554641 -0.072343215 -0.8849535 0.67075545 0.6674676 -0.22659634 0.020402534 -0.45119274 0.077667676 -0.4361789 -0.6557657
明 -0.38687956 0.511295 0.5698178 1.4548262 -0.4348261 -0.013444773 -0.67809844 0.6397024 0.21588027 0.3869481 0.26095942 0.64239347 0.23104241 -0.94326377 0.87571484 0.45831245 0.6576076 0.098934606 0.87250197 -1.2395642 -0.88411057 -1.4238676 0.38421378 0.36480823 -1.9713567 -0.39872718 0.5403639 1.519008 -0.691495 1.3349655 0.12647921 0.07163807 0.037747 -1.432622 1.4623817 -0.051528048 0.78343356 0.8112128 -0.77935773 -0.62358505 -2.29274 -0.046191704 -1.1848581 0.45565417 -0.52081925 -0.1220182 1.7806233 -0.09428394 0.81937784 -0.54387563 0.19156972 -1.2825826 -0.67812663 -2.0008774 -0.9364197 0.27372453 0.20901832 1.1772484 0.77704304 -0.31734273 0.8231238 -0.40466422 -0.074001424 0.2707541 -1.2551899 -0.19063762 0.34106895 -1.9491631 0.15031877 0.86346793 -0.78753656 -0.25764176 -1.6775842 -0.8035378 0.19371933 -0.7404449 0.72442484 1.251178 -0.96290433 -0.9360453 -0.41221926 -1.338312 1.3123219 0.30683717 0.47306514 0.537862 -0.7644347 0.5249631 0.027889488 0.7226581 -0.063137546 -0.41239178 1.0462849 0.5157992 -1.1026587 0.24712428 0.64652425 0.99742633 0.9933964 -0.9917801 0.3649605 0.83832264 -1.1906439 -1.5392693 -1.1596984 0.090069644 -0.5772844 0.9366779 0.37748483 0.6334102 -1.2666057 0.57026476 0.85634893 1.0158505 0.7645573 -0.48081946 0.5198287 -0.03424176 -1.1613052 -0.19659308 -0.23057875 0.47296026 1.0937961 -0.7618539 0.39255583 -0.71284276 -0.45350167 -0.27468464 0.89759827 -0.2951727 1.6884423 -0.16356906 -0.043810282 1.5883597 0.8764159 -1.2350408 -0.49272954 -0.7445963 -0.37339061 1.3098003 0.2578062 -0.58166766 -0.5219097 0.024890928 0.58745027 0.4158142 0.075268924 0.41908988 -0.484499 0.44409707 -0.24785031 -0.039143234 0.9636491 -0.72585946 0.31613147 -1.34002 -0.78005207 0.29280028 -0.9563341 -0.32517073 0.93928957 -2.2967057 0.48660663 0.25816703 -0.68125606 -0.4616269 0.256408 -0.5595534 0.8553537 0.14662367 0.30565664 -0.6254684 0.0108266855 1.6391758 -1.380064 0.3074549 0.24968709 -1.3939514 0.5581769 -0.162426 -0.09362086 -1.068898 -0.3100771 0.253626 0.04839196 1.1732761 -1.3344204 0.31426668 -0.99815726 1.1315061 -0.11332118 0.24867395 -0.08536592 0.55127794 -0.89950234 0.82606727 -1.1175256 -0.48349562 0.15994126 -0.11566493
